0.49007317 -0.00731409 -1.02879715 0.00000000 -0.00000000 -0.91559881 0.18716936 0.28187758 -0.35408920 0.00000000 0.69740939 -0.00000000 0.90941191 -0.00000000 -0.07827376 -0.09353165 -0.00000000 0.00000000 0.28140345 -0.28323999 -0.02754098 -0.24770781 0.30413312 0.00000000 -0.00000000 -0.00000000 0.00000000 -0.00000000 -0.00000000 0.00000000 -0.83080059 -0.00000000
-0.25831777 0.27389270 0.10154688 0.21235345
-1.05591559 0.97335130 -0.90626806 0.73942000 0.00000000 0.47284314 0.00000000 -0.17607753 0.00000000 -0.12842831 -0.00000000 0.00000000 -0.00000000 -0.00000000 0.00000000 0.98543960 0.00000000 0.00000000 -0.11170956 -0.00000000 -0.03359156 -0.00000000 -1.77415860 0.23981628 0.30112395 -0.59743059 0.00000000 0.54246110 0.88747275 -0.00000000 -0.00000000 1.42579484
0.68188810 1.02763033 -0.39429593 -0.23659982 1.09582531 0.71037447 -0.08550314 0.92823648
0.03071205 0.03430834 0.33403039 -0.28779158 0.00000000 -0.00000000 0.07553403 0.00000000 -0.32846713 0.00000000 -0.01040997 -0.04952576 0.00000000 -0.00000000 0.00000000 0.00000000 0.00000000 -0.00000000 0.18782541 0.21666141 0.30249727 0.00000000 -0.00000000 -0.00000000 -0.08219494 0.00208577 0.06787740 0.00000000 0.12128094 0.17935733 -0.00000000 0.00000000 0.00000000 0.00000000 -0.05770617 0.00000000 -0.00000000 0.00000000 -0.00000000 0.07987568 0.14406565 0.27092218 0.12880599 -0.00000000 -0.00000000 0.10647980 0.00000000 0.00000000 -0.00000000 -0.03657683 -0.03289487 0.04905961 0.00000000 0.27723494 0.20035627 -0.00000000 -0.00000000 -0.00503891 -0.00000000 0.00325338 0.20741151 -0.00000000 -0.00000000 0.00000000 0.17000777 0.22939359 0.00000000 0.30098727 0.33171901 -0.00000000 0.18949823 0.19253702 0.00591786 0.29571965 0.40358344 0.00000000 0.00000000 0.39460674 -0.00000000 -0.00000000 -0.76307958 0.00000000 -0.53254306 -0.35470179 -0.00000000 0.00000000 -0.56623906 0.00000000 -0.13181865 -0.00000000 -0.23941687 -0.00000000 0.00000000 -0.30779225 -0.00000000 -0.17493547 -0.35157776 -0.00000000 -0.53026676 0.00000000 -0.00000000 -0.00000000 -0.00000000 0.00000000 0.00000000 -0.00000000 -1.43049347 -0.40157390 -0.00000000 -0.00000000 -0.00000000 -0.39879474 0.14101985 0.00000000 0.18249947 0.12757692 -0.00000000 0.00000000 0.05284729 -0.01246179 0.00000000 0.00000000 0.00000000 0.00000000 0.31836656 0.25283730 0.00000000 0.13330100 0.00000000 0.00000000 0.00000000 -0.40213707 -0.16021785 -0.11856080 -0.00000000 0.04230304 0.40405124 -0.00000000 -0.00000000 -0.00000000 -0.08664581 -0.01077271 0.07084914 0.08395279 0.00000000 -0.44961226 0.00000000 -0.49701807 -0.50934851 -0.00000000 -0.17847119 -0.13473578 0.07392273 0.00000000 0.00000000 0.29837364 0.00000000 0.38376164 0.00000000 0.08403261 0.11250366 -0.01739613 0.00000000 -0.21262069 -0.20719612 -0.29221529 0.00000000 0.11307204 -0.00000000 0.41377458 -0.00000000 -0.03107538 -0.25445157 0.00000000 -0.16726263 0.03965579 0.00000000 -0.28804925 -0.00000000 -0.29883847 -0.33150801 0.02815827 -0.01159991 -0.00000000 -0.01457921 0.10641900 0.00000000 -0.00000000 0.22099698 0.14250681 -0.00000000 0.00000000 -0.21275371 -0.00000000 -0.00000000 0.02284133 0.22657633 -0.01668055 -0.00000000 0.05269482 0.10095515 0.00000000 0.01527566 0.00000000 -0.00000000 -0.04201219 -0.00000000 0.13654143 -0.00000000 -0.14713189 -0.00000000 -0.00000000 -0.00000000 -0.00000000 -0.00000000 -0.38470861 0.18341659 -0.26027533 -0.07383325 -0.00000000 -0.00000000 -0.00000000 0.12683935 -0.00000000 0.24079154 -0.17618509 -0.19574970 -0.26143259 -0.23446502 -0.00000000 0.00000000 -0.07846187 0.00000000 -0.15585311 0.19938365 0.00000000 -0.00000000 -0.23067167 -0.00000000 0.00000000 -0.00000000 -0.00000000 0.00000000 0.01758588 -0.00000000 0.00000000 0.00000000 0.26037246 0.00000000 0.00320241 0.43476978 0.00000000 0.21709800 -0.00000000 0.00000000 -0.00000000
0.02630346 0.15264674 0.28034499 -0.01944367 0.21255066 0.33521530 0.03922169 0.09950746
0.00000000 -0.53194165 -0.36871478 0.21205460 0.00000000 0.00000000 -0.13916282 -0.06545136 0.00000000 0.18662542 -0.36605483 0.24725287 0.00000000 -0.00000000 -0.19224188 0.00000000 -0.00000000 -0.00000000 -0.48486727 0.00000000 -0.00000000 0.27874461 -0.22387299 0.23753467 -0.42624652 -0.00000000 -0.54831803 0.38698748 -0.06705952 0.43455452 -0.00000000 0.00000000 0.00000000 0.00000000 -0.00000000 0.37553203 0.59405333 0.54017532 0.00000000 0.04617266 -0.19162762 0.23236226 -0.33728456 0.57714975 0.00000000 -0.00000000 0.00000000 -0.25910041 0.14271414 0.52860135 -0.00000000 -0.00000000 -0.04020663 -0.03111717 -0.04382024 -0.00000000 0.00000000 0.00000000 0.00000000 0.00000000 0.36273038 0.00000000 -0.00000000 0.35563144 0.44901219 0.00000000 0.26797393 0.00000000 -0.00000000 0.22497259 0.48875013 0.00000000 0.00000000 -0.00000000 -0.00000000 0.00000000 -0.00000000 -0.00000000 -0.00000000 0.29175904 0.53995657 0.00000000 0.12470456 1.43023348 0.26534480 -0.21144049 0.23765472 0.00000000 -0.00000000 -0.17565739 0.00000000 0.20816188 0.00000000 0.00000000 0.08256434 0.17953828 -0.30737716 0.00000000 0.19491014 -0.00307533 -0.00000000 -0.00000000 0.63885093 -0.00000000 -0.87881446 -0.00000000 0.46555078 -0.00000000 -0.00000000 0.60262036 0.28993437 0.00000000 -0.19124527 -0.54769129 0.32252511 -0.48771542 -0.00000000 0.00000000 -0.00000000 -0.00000000 -0.00000000 0.00000000 0.00000000 -0.00000000 -0.07606200 -0.00000000 -0.39865911 0.11933853
0.16745234 -0.21781421 -0.42036372 -0.34835994 -0.11442117 -0.34830958 -0.60642767 0.01878137 0.10574093 0.16117142 0.34635788 0.49307770 0.22071238 0.20792268 0.55159211 0.09264395
0.00000000 0.00000000 -0.00000000 -0.00000000 -0.11150230 -0.02048066 0.12518728 0.00000000 -0.23602304 -0.31963751 -0.05985066 0.09957006 0.23366712 0.00000000 -0.00000000 0.00000000 -0.47857636 -0.03936954 -0.00000000 0.00000000 0.21023160 -0.00000000 0.27562177 -0.00000000 0.00000000 -0.34292474 0.00000000 0.00000000 -0.00000000 0.26697955 0.23915921 0.30705315 -0.00000000 -0.00000000 0.22366771 0.28027099 0.22794522 0.09335287 -0.00000000 0.33094060 -0.31428611 0.00000000 -0.27109289 0.07606736 0.00730114 0.00915335 -0.00000000 -0.00000000 -0.06845015 0.00000000 -0.00000000 -0.02343887 -0.00000000 0.00000000 0.00000000 -0.00000000 0.24852678 0.59831405 0.43893483 0.01989346 0.29349241 0.00000000 0.13826071 -0.00000000 -0.00000000 0.07502763 0.12373864 0.00000000 0.16893809 0.00000000 -0.00000000 -0.00000000 -0.25408089 0.00000000 -0.00000000 -0.00000000 -0.00635394 0.00000000 -0.00000000 -0.19107865 -0.25969061 0.00000000 -0.00000000 -0.13292119 -0.27457327 -0.20990776 0.00000000 -0.01144960 0.00000000 -0.00000000 -0.00000000 -0.00000000 -0.00000000 -0.03543310 -0.00000000 -0.00000000 -0.01361229 -0.00000000 -0.00000000 0.00000000 0.00000000 0.00000000 -0.00000000 -0.02684161 -0.22003973 -0.07747333 -0.06253570 -0.06761377 -0.00000000 0.00000000 0.00000000 -0.20056619 -0.00000000 0.00000000 -0.10629267 -0.00000000 -0.00000000 -0.07194759 -0.32064557 -0.00000000 -0.05550785 -0.12568824 0.20707968 0.23263304 0.11026771 -0.08179104 0.00000000 0.14253289 0.17117870 -0.00000000 0.00000000 -0.09267911 -0.12376154 -0.05908064 -0.00000000 -0.00000000 0.00000000 0.12153944 -0.25453487 -0.23621312 0.00000000 0.00000000 -0.00000000 -0.00000000 0.00000000 0.19826761 0.01553690 -0.23630860 -0.00000000 -0.00000000 0.35645694 0.00000000 0.32112488 -0.05568460 -0.29521355 0.00000000 0.00000000 0.02159556 -0.00000000 0.00000000 0.00000000 0.00000000 -0.24070868 -0.10923019 0.06883413 0.00000000 0.19977154 0.00000000 0.00000000 -0.00000000 -0.08798011 -0.25466031 0.00000000 0.07786326 -0.00000000 0.31180951 0.00000000 0.02075842 0.05933135 0.07874595 0.01724176 0.00000000 -0.21145028 0.00000000 0.53402376 0.00000000 0.10177045 -0.68684721 0.00000000 0.27757531 -0.24048704 -0.00000000 -0.00000000 0.17003000 0.00000000 -0.00000000 0.25925401 -0.10349751 -0.00000000 0.00000000 0.94388151 -0.00000000 0.33429495 0.34908652 0.08956597 0.00000000 0.00000000 0.37246230 0.00000000 0.63360929 0.24497680 0.37767041 0.22453098 0.00000000 0.00000000 0.00000000 -0.00000000 0.00000000 0.02194011 0.35459116 0.05910688 0.00000000 0.33486962 0.00000000 -0.00000000 0.11418623 -0.00000000 -0.25619590 0.00000000 0.00820629 0.19338121 0.00000000 -0.00000000 -0.00000000 -0.00000000 0.00000000 -0.00000000 -0.00000000 -0.00000000 -0.00000000 -0.00000000 0.04848541 0.00000000 0.00000000 -0.01570243 0.00000000 0.11854273 0.17481527 -0.00000000 -0.00000000 0.23443441 -0.09235583 -0.00000000 0.31926432 0.00000000 0.29937300 0.11545415 -0.00000000 0.16023853 0.10279657 0.14895627 0.00000000 -0.00000000 0.06917064 -0.00000000 0.00817258 -0.01822623 -0.25773245 -0.04170945 -0.00000000 -0.00000000 0.13341805 -0.00000000 -0.18961035 -0.00000000 0.00137464 -0.06845707 -0.17560101 -0.07041281 0.11561377 0.00000000 0.00000000 0.00000000 -0.02501394 0.00000000 -0.03173949 -0.00000000 -0.11215254 -0.00000000 0.00000000 -0.16595589 -0.16234358 -0.00000000 0.04975877 -0.19266337 -0.14973541 -0.16497010 -0.18519400 -0.21646459 -0.23300035 -0.00000000 -0.18040216 -0.10258205 0.00000000 -0.00000000 -0.00000000 -0.18698035 0.02222774 -0.00000000 0.02001702 0.01881094 0.00000000 0.00000000 -0.00000000 0.17531836 -0.00000000 0.00000000 0.00000000 -0.00000000 -0.00000000 0.15526029 -0.00000000 -0.09908714 -0.00000000 -0.04444807 0.00000000 0.00000000 0.00000000 -0.00411165 -0.03620211 0.00000000 -0.04839659 0.00000000 -0.00000000 -0.22111064 0.03529906 -0.01484786 -0.11530849 0.00000000 -0.13641591 -0.17456320 -0.10707472 -0.00000000 -0.23741417 0.00000000 -0.00000000 -0.14079092 0.00000000 -0.12046308 0.00000000 -0.07486060 0.00000000 0.18415491 -0.03058537 -0.01114081 -0.00000000 0.00000000 0.00000000 0.07359461 -0.01318813 -0.24452157 -0.08366179 -0.00000000 -0.00000000 -0.06363448 -0.29921675 -0.25748575 -0.00000000 0.00000000 -0.00000000 0.00000000 0.00000000 -0.14952601 -0.16448781 -0.00000000 0.00000000 -0.00000000 0.13055465 0.00000000 -0.00000000 -0.18843193 -0.00000000 -0.00000000 -0.06517385 0.00000000 0.21402968 -0.02887258 -0.00000000 -0.06950603 -0.01021365 0.00000000 0.13338910 -0.21210113 0.00000000 -0.32733709 -0.17642106 -0.05479108 -0.28565437 0.00000000 -0.00000000 0.00000000 -0.25999057 -0.32189012 -0.00000000 -0.07231321 -0.08298175 -0.00000000 -0.21840458 -0.23761250 0.00000000 -0.11940321 -0.17237327 -0.00000000 -0.06727715 0.00000000 -0.19443023 0.15903825 -0.00000000 -0.00000000 0.00000000 -0.00000000 -0.00000000 -0.04527330 0.16865180 0.03984813 -0.28511402 -0.09097638 -0.00000000 -0.10589676 -0.05327392 -0.00000000 -0.21451335 -0.20477894 -0.00000000 0.00000000 -0.00000000 -0.00000000 -0.00000000 -0.05307029 -0.01608370 -0.01158647 0.22968979 -0.00277087 0.00000000 0.27483132 -0.00000000 -0.06597237 -0.14078595 0.00000000 0.16407976 -0.01776599 -0.00074454 0.00000000 -0.17382884 0.00000000 0.02405604 0.00000000 0.00000000 -0.03727583 -0.00000000 -0.09652528 0.00000000 0.24266070 0.00000000 0.00000000 0.00000000 -0.00000000 0.00389035 -0.07685643 0.21432380 0.16655684 0.02085940 0.00000000 -0.30867824 0.00000000 -0.00000000 0.01495049 0.02139607 -0.00000000 0.30381456 0.00000000 -0.22561987 -0.40548116 0.08237197 0.00000000 0.16777137 0.16805859 -0.04598147 -0.00000000 -0.28166670 -0.08790857 -0.30937779 0.00000000 0.08149242 -0.00000000 0.31296912 0.00000000 0.00000000 -0.19314519 0.00000000 0.25480303 0.11551750 0.00000000 -0.00000000 0.00000000 0.00000000 -0.03370228 -0.00000000 -0.00000000 0.47742096 0.06907116 0.00000000 0.14635974 0.18445615 -0.04554693 0.00000000 -0.08049981 -0.15506843 -0.00000000 -0.00000000 -0.24963844 0.00000000 -0.00000000 -0.10432322 -0.00000000 0.13265136 0.00000000 -0.14586057 -0.09736357 -0.29568595 -0.00000000 -0.15055457 -0.00000000 -0.00000000 -0.12477881 0.00000000 -0.00000000 -0.14748551 -0.38274461 0.00000000 -0.00000000 0.00000000 -0.00000000 0.00000000 0.00000000 0.01947797 -0.00000000 0.00000000 -0.00000000 -0.09823328 0.00000000 0.11319682 -0.24586260 -0.00000000 -0.12878215 -0.00000000 -0.18315956 0.11776710 0.10742563 -0.00000000 -0.00408707 0.00000000 -0.34275478 0.00000000 -0.04804687 -0.00000000 -0.00000000 -0.06339327 -0.08792538 0.00000000 -0.00000000 0.00000000 -0.00000000 0.24766816 0.12039154 0.14220367 -0.00000000 0.12579249 0.00000000 -0.00741194 -0.14511864 0.05802380 -0.05900297 -0.00000000 -0.00000000 -0.25069797 -0.21330428 0.00000000 0.00000000 -0.22988567 -0.21260710 -0.19362982 -0.18329072 -0.00000000 0.01471643 -0.00651877 0.00000000 -0.00290088 0.00000000 -0.07966711 0.06356365 0.00000000 -0.00000000 -0.00000000 -0.00000000 -0.00000000 -0.00000000 -0.16839276 -0.00000000 -0.00000000 0.15825067 -0.00000000 -0.08889133 -0.00000000 -0.00000000 0.35642597 -0.00000000 0.04311000 -0.00000000 0.00000000 -0.17331858 -0.26184857 0.00000000 -0.00000000 -0.14593311 -0.01226352 0.00000000 -0.00000000 -0.00000000 0.00000000 -0.00000000 -0.00000000 -0.00000000 0.08211289 0.00000000 0.34501785 -0.00000000 0.13220434 0.00000000 0.00000000 0.13630667 0.00000000 -0.00000000 -0.00000000 -0.00000000 -0.00000000 0.00959087 -0.00000000 -0.00000000 -0.00000000 -0.03826698 0.00000000 -0.22950132 -0.00000000 0.01912195 -0.05818497 -0.00000000 -0.00000000 -0.17529663 -0.02444574 -0.00000000 0.00000000 -0.01425950 -0.32813701 -0.00000000 -0.00000000 0.17596799 0.00000000 -0.23525485 -0.24687277 0.00000000 -0.00000000 -0.00000000 0.29447463 -0.13247167 -0.02112573 0.03402878 -0.00000000 -0.25872669 -0.23250332 0.00000000 0.00000000 -0.13254273 0.04066287 -0.00000000 0.00000000 -0.24114756 0.00000000 -0.04459277 0.26091680 0.28973848 0.03930820 0.00000000 -0.10685954 -0.05543241 -0.00000000 0.00000000 0.00000000 0.28941599 -0.00000000 0.00688572 0.00000000 0.32056463 0.00000000 0.12885688 -0.00000000 -0.05406306 0.00000000 -0.00000000 0.00000000 -0.00000000 0.00000000 0.00000000 -0.00000000 -0.01336851 -0.29915133 -0.00000000 0.00078898 -0.00000000 0.00000000 -0.19691807 0.00000000 -0.22102495 0.00000000 -0.03531113 -0.00000000 -0.00000000 -0.00000000 -0.18006016 -0.00000000 -0.00000000 -0.30113313 0.00000000 0.00000000 -0.16480036 -0.11512531 0.00000000 0.00000000 0.05335570 -0.21761954 -0.00000000 -0.06758723 0.00000000 -0.00000000 -0.21284690 -0.22527547 -0.23007835 -0.06584206 -0.04413968 -0.04326729 0.05195615 -0.00000000 0.09537692 0.00000000 -0.23208602 -0.11181603 0.00000000 -0.00159465 -0.19254498 0.00000000 -0.15410596 -0.00000000 -0.00000000 0.26213712 0.09773605 -0.00000000 0.00000000 0.00000000 -0.00000000 0.14331660 0.00000000 -0.09595139 -0.00000000 -0.12582251 -0.04704622 0.00000000 -0.00000000 -0.00000000 -0.15456437 0.00000000 -0.08120413 -0.21674189 -0.18232295 0.00000000 -0.00000000 -0.00000487 -0.19877827 -0.22044583 -0.34527269 0.01200232 0.04225564 -0.02842113 0.06454308 0.05123393 0.02511262 0.02906240 0.00000000 -0.23013930 -0.02303257 -0.22077267 -0.00000000 -0.30820432 -0.10785197 -0.00000000 -0.11108397 0.05853272 0.02299979 -0.00000000 -0.16145168 0.03318788 0.03055960 0.00000000 0.00000000 -0.02153173 -0.00000000 0.00000000 -0.24836901 0.00000000 -0.14927807 -0.14165455 -0.00000000 -0.27815506 0.00000000 -0.18256900 0.00000000 0.00000000 -0.00000000 0.00000000 0.38867137 -0.00000000 0.00000000 -0.00000000 0.15511051 0.00000000 0.03288268 -0.00000000 0.00000000 0.08296320 0.00000000 -0.14839871 -0.19886822 0.00000000 -0.00000000 0.15898353 0.00000000 0.01082223 -0.16231951 -0.27815408 0.00000000 0.00000000 -0.16683243 0.11266898 0.00000000 -0.00000000 0.00000000 -0.00000000 -0.17815647 0.00000000 -0.00000000 0.12433172 -0.00000000 0.21605235 0.00000000 0.00000000 0.15305063 -0.11098415 0.03602730 -0.00000000 -0.00000000 0.18487194 0.12593025 -0.41213232 -0.19553980 0.00000000 -0.24208593 0.10628518 0.24526030 0.16170926 0.02447478 -0.00000000 -0.00000000 -0.00000000 0.00000000 -0.00000000 -0.04347845 -0.00000000 0.02345971 0.00000000 -0.00000000 -0.08696692 -0.23846680 0.00000000 -0.00000000 0.00000000 0.00000000 0.00000000 -0.01518642 -0.00000000 -0.06471861 -0.08057996 -0.00000000 -0.12434853 -0.00000000 -0.04330002 0.00000000 0.10561218 0.10888436 0.00000000 0.00000000 -0.11128029 0.00000000 -0.22819608 -0.25183237 -0.00000000 0.00000000 -0.00000000 0.02667297 -0.00000000 -0.18766114 0.00000000 0.00000000 0.00000000 0.00000000 -0.00000000 -0.00000000 0.09581979 0.02562476 -0.26381329 0.38745126 0.14932413 0.00000000 0.00000000 0.12146984 0.01613830 -0.00000000 0.00000000 -0.10640948 0.00000000 -0.08098978 0.13165201 0.00312530 -0.17530042 -0.01167132 -0.00000000 0.00000000 0.10322352 -0.00000000 -0.07103498 -0.00000000 0.03838472 -0.00000000 0.00000000 0.00000000 0.05902894 0.19754723 0.27354541 0.05536641 -0.00000000 0.39914382 -0.00000000 0.00000000 -0.05112219 0.00000000 -0.00000000 -0.00000000 0.16264138 -0.04156365 0.00000000 0.29267651 0.00570559 0.23738147 0.00000000 -0.00000000 0.00000000 0.00000000 -0.32083708 0.00000000 -0.00000000 0.00000000 -0.11177181 0.00000000 0.00000000 0.00000000 -0.17028964 0.30846009 0.00000000 -0.02810055 0.00000000 0.01843534 -0.06314667 -0.09300782 -0.00000000 0.00000000 0.00000000 0.11877697 -0.00000000 0.00000000 -0.00000000 -0.14599392 0.00000000 0.17595477 -0.00000000 -0.00841999 0.15251137 0.02284053 0.19586614 -0.12602472 0.00000000 -0.21175069 0.18570875 -0.06552115 -0.12932526 -0.00000000 -0.00000000 -0.00000000 0.00000000 -0.00000000 -0.00000000 0.00000000 0.12469888 -0.00144716 0.00000000 0.16237041 0.00000000
0.13053842 0.18481763 0.06496310 0.01861389 0.14147344 0.37082171 0.02361685 0.29079050 0.17291974 0.38037464 0.07218808 -0.03172623 0.24982521 0.08090542 0.18405147 0.29680702
0.32068259 0.00000000 -0.00000000 -0.00000000 0.26310840 0.32464206 0.00000000 0.27472419 -0.09877691 0.34270203 -0.00000000 0.20933203 0.00000000 0.00000000 0.00211080 -0.09797637 0.16952549 -0.00000000 0.00000000 0.31718782 0.00000000 -0.29775187 -0.29862827 -0.00000000 -0.00000000 -0.25982061 -0.00000000 0.00000000 -0.00000000 -0.09070139 0.00000000 -0.00000000 -0.52316469 -0.30078623 -0.00000000 0.19950040 0.00000000 0.00000000 -0.00000000 0.00000000 -0.36355156 0.00000000 0.30542800 -0.01760123 0.00000000 -0.21904802 0.00000000 -0.06416272 -0.00000000 -0.01412368 -0.00000000 -0.20821559 0.41032568 0.43345872 -0.00000000 0.00000000 -0.00000000 -0.00000000 -0.00000000 -0.00000000 0.30487153 -0.21777211 -0.06403930 -0.41713107 0.00000000 0.36642998 0.17806262 -0.00000000 0.16395979 0.34554833 -0.00000000 0.16396366 0.00000000 -0.00000000 -0.14022315 0.35373574 0.00000000 0.00000000 -0.00000000 -0.03342076 0.22526945 0.00000000 0.27793211 -0.00000000 -0.21488084 -0.00000000 -0.28429040 0.00000000 -0.00000000 0.00000000 0.00000000 -0.00000000 0.01398587 0.24037492 -0.00000000 -0.08981145 -0.15619859 -0.00000000 -0.11450312 0.00000000 -0.16087307 0.00000000 -0.00000000 0.00000000 -0.31347859 -0.00000000 -0.00000000 -0.30721992 0.03282190 -0.17854655 0.00000000 -0.00000000 0.00000000 -0.00000000 -0.00000000 0.18219690 0.00000000 -0.00000000 -0.00000000 0.16437897 0.00000000 0.34329188 -0.00000000 -0.00000000 0.22059183 -0.24846336 -0.04356046 -0.00000000 0.07290073 0.03985180 -0.26131558 0.24279316 0.00000000 -0.27614850 -0.00000000 -0.00000000 -0.26949313 0.28019005 0.25310630 -0.30858904 -0.05709141 -0.42235833 0.04025637 0.47732660 -0.00000000 -0.00809173 0.00000000 -0.00000000 0.19537321 0.34336254 -0.00406714 -0.08410971 -0.00000000 0.08498764 0.38270366 -0.00000000 0.42930800 -0.15948139 0.24588026 0.03028929 -0.46646345 0.23318455 -0.20260395 -0.09524724 -0.00000000 0.36692834 -0.00000000 -0.00000000 0.00000000 0.00000000 -0.07475784 -0.00000000 0.15967520 -0.00000000 0.25661996 0.11047766 0.00000000 -0.00000000 -0.00000000 0.00000000 0.08887716 0.29634750 0.30900106 -0.00000000 0.02149232 -0.00000000 -0.00000000 0.28451881 -0.28019574 0.02315078 -0.23343110 -0.00000000 0.00000000 -0.34369433 -0.00000000 0.32368630 0.00000000 -0.34662607 -0.00000000 0.00432511 0.00000000 -0.00572615 -0.00000000 0.01238376 -0.00000000 -0.11115359 0.00000000 -0.00000000 0.00000000 0.00588893 0.00000000 0.00000000 0.17961039 0.00000000 -0.34137201 -0.42870322 -0.36694580 -0.00000000 0.00000000 0.00000000 0.00000000 0.00000000 0.27292454 0.28174943 -0.35296258 0.18446159 -0.72856307 0.01024737 -0.27576452 -0.05431106 -0.09909353 -0.00000000 0.11226834 -0.00000000 0.00000000 -0.00000000 -0.00000000 -0.91996264 -0.00000000 -0.00000000 -0.25253293 0.00000000 0.00000000 0.00000000 0.00000000 0.29656544 0.00000000 -0.45913523 -0.00000000 -0.02554172 0.21328042 -0.13208854 0.00000000 -0.17224370 -0.00000000 -0.18611845 -0.00000000 -0.00000000 1.04902875 0.32696900 0.00000000 -0.04767784 -0.13943613 -0.06765246 0.21135718 0.31183222 0.18170750 -0.00000000 -0.12549591 1.39455616 0.00000000 0.00000000 0.18001615 -0.00000000 0.00000000 0.68148881 0.00000000 0.00000000 -0.02271243 0.00000000 -0.00000000 0.33108881 -0.00000000 0.29228437 -0.00000000 0.00000000 0.00000000 0.00000000 -0.00000000 0.00000000 0.00000000 0.99118233 -0.13558206 -0.00000000 -0.00000000 0.04606042 0.00000000 0.00000000 -0.10300619 0.00000000 -0.10906974 0.00000000 -0.00000000 0.44898093 0.11289716 -0.00000000 0.12969796 0.00000000 0.00000000 -0.13425420 0.00000000 -0.00000000 0.00000000 0.00000000 -0.00000000 0.00000000 -0.00000000 0.00000000 -0.26139927 0.00000000 0.00000000 0.25152811 0.00000000 -0.00000000 0.22391574 -0.04279423 0.00000000 0.45389655 0.25012195 0.00000000 0.42779973 0.24566656 -0.00000000 0.33074135 0.00000000 -0.00000000 -0.00000000 -0.00000000 -0.34367666 -0.00000000 -0.00000000 0.23156430 0.26365888 -0.00000000 -0.07395976 0.20647295 -0.10875154 -0.00000000 0.25892222 -0.00000000 0.00000000 -0.00000000 0.00000000 0.44137186 0.00000000 0.44435918 -0.00825178 0.33516058 -0.00000000 0.24542190 0.50254613 0.32381865 0.28062725 -0.00000000 0.05613171 -0.11156223 0.00000000 -0.00000000 0.31382260 0.18944104 -0.00000000 -0.03415130 0.12070931 -0.00000000 0.00000000 -0.00000000 0.00000000 -0.00000000 -0.29334036 0.20818643 -0.13369003 -0.06762547 0.11143766 0.17416704 0.00000000 0.00000000 -0.00000000 -0.00000000 -0.00000000 0.20698881 0.00000000 -0.00000000 -0.11240975 0.00000000 0.00000000 -0.12746020 -0.04587812 0.07679840 -0.17624830 0.00000000 0.17117271 0.00000000 -0.53399092 0.00000000 0.17395800 0.35833913 0.03347966 0.37784633 -0.06153896 0.10676639 0.00000000 0.00000000 0.31926087 -0.09612055 0.00000000 0.86828816 0.00000000 0.26462087 -0.15261199 0.00000000 0.32042030 0.37206918 -0.00000000 -0.00000000 0.00000000 0.00000000 0.00000000 0.00000000 0.00000000 0.00000000 0.00000000 0.00000000 -0.00000000 0.18614158 -0.07371236 0.00000000 -0.00000000 0.00000000 0.00000000 -0.24837950 0.17038365 -0.07405057 -0.00000000 0.23924416 0.28002164 0.00000000 -0.00000000 -0.00000000 0.00000000 0.23911473 -0.00000000 0.77725422 -0.11825409 -0.00000000 -0.00000000 0.60603088 0.00000000 0.23558874 0.28668752 0.23309426 0.31650695 -0.00000000 -0.14745241 0.97742862 0.60694844 -0.03543111 0.56125391 0.00000000 0.23435873 -0.00000000 0.03369867 -0.00000000 0.00000000 -0.08975159 -0.12084083 -0.00000000 -0.00000000 0.06205187 -0.09327983 0.00000000 -0.00000000 0.13295174 0.00000000 0.24423218 0.18667944 -0.21907102 0.00000000 0.45176303 0.39413416 0.13086706 -0.00000000 0.42320257 -0.00201597 0.94038761 -0.00000000 0.00000000 0.40682390 0.00000000 0.26082617 0.00000000 -0.07263394 -0.00000000 -0.00000000 0.46360141 0.37951165 0.00000000 0.28891698 -0.00000000 -0.11601610 0.00000000 -0.13279629 0.00000000
0.14705075 0.02175986 -0.22414614 -0.05035383 -0.06031989 -0.33868828 -0.03015062 -0.06967521 -0.01637769 0.16343360 0.01060423 -0.06372656 0.06892200 -0.19915254 -0.37493953 -0.06455041 0.19724303 0.28355995 0.08141613 0.15037718 0.11746620 0.08100362 0.11426464 0.13362969 0.33085477 0.26371744 0.37224051 0.24189200 0.18465878 0.02858706 0.12734616 0.18069524
0.00000000 -0.00000000 -0.14611024 0.00000000 0.00000000 -0.00167934 0.00000000 0.05185066 0.04385845 -0.00000000 0.00000000 -0.00000000 -0.00000000 -0.00000000 0.12596993 0.11356994 0.12276062 -0.00196594 -0.19230464 0.00000000 0.35325718 -0.00000000 -0.00000000 0.00000000 -0.00000000 0.16240054 0.00000000 0.00988060 -0.00000000 -0.00000000 -0.00000000 0.08929379 -0.00000000 0.21949403 0.00000000 -0.00000000 -0.00000000 0.00000000 0.00000000 0.15452738 0.00000000 0.00000000 0.00000000 -0.00000000 -0.00000000 -0.08194467 0.00000000 0.00000000 -0.00000000 0.06125211 -0.00000000 0.17848955 0.00000000 -0.00000000 0.00000000 0.04725392 -0.00000000 -0.00403726 -0.00000000 -0.01378045 0.09655943 0.18886329 0.07521559 -0.02445869 -0.00000000 0.10328905 0.00000000 0.00000000 -0.09594635 0.00000000 -0.11098094 -0.10972988 0.08443396 0.00000000 -0.24450426 -0.02276889 -0.00000000 0.00000000 -0.15664901 0.00000000 -0.13287039 0.00000000 0.00000000 0.00889766 0.19863035 0.12302742 0.00000000 -0.00000000 0.07210996 0.12377293 0.00000000 0.02766625 -0.09755040 -0.00000000 0.04844158 -0.02917352 -0.12603272 -0.00247569 -0.06725803 0.00000000 -0.00000000 -0.00000000 -0.00000000 -0.07874269 -0.11795440 -0.11578104 0.00000000 0.21313553 0.13487756 -0.14074050 -0.13120136 0.00000000 -0.00000000 -0.17625712 0.00000000 -0.00000000 0.17370816 0.00000000 -0.04147350 -0.20063372 -0.00000000 0.00000000 -0.38287124 0.00000000 -0.00000000 0.00000000 -0.09013604 0.00000000 0.06930774 -0.00000000 0.00000000 -0.03515711 -0.00000000 -0.09858205 0.09756192 -0.02926981 -0.00000000 -0.09824568 0.00000000 0.06120323 0.00000000 0.02934319 0.00000000 0.00000000 0.06363370 0.03626570 -0.12163034 0.00000000 0.00000000 0.00000000 -0.03840628 -0.01994682 -0.00000000 -0.04137735 0.00000000 -0.00000000 0.00000000 0.12965550 0.00000000 -0.00000000 0.00000000 0.08822124 0.00000000 -0.00000000 -0.00000000 0.11391406 -0.04435750 -0.05049722 -0.00000000 0.00000000 -0.07126491 -0.00000000 0.00000000 0.00000000 -0.15897475 -0.08523250 -0.09208937 0.03965306 -0.15913542 -0.18263777 -0.00000000 0.00000000 0.00000000 -0.14181104 0.00000000 -0.05531761 -0.02458791 -0.00000000 0.00000000 0.10840145 0.19355154 -0.00000000 -0.01339487 0.16291296 0.08597113 -0.01783649 -0.13119231 0.00000000 -0.04909365 0.00000000 -0.00000000 0.08679240 0.14484087 0.00000000 0.00000000 0.14143941 0.19531016 -0.06932901 -0.00000000 -0.00000000 0.00000000 0.08103503 -0.00000000 0.00000000 0.10492809 -0.00000000 0.00000000 0.00000000 0.00000000 -0.03525310 -0.00000000 0.00000000 -0.06582756 -0.00000000 -0.00000000 -0.12212733 -0.00000000 -0.00000000 0.00000000 0.00000000 0.01880446 -0.00000000 0.00000000 0.00000000 0.00000000 0.00000000 -0.00000000 0.11510089 -0.00000000 -0.00000000 0.05572329 -0.20397963 -0.22428592 0.00000000 -0.01913619 0.23865046 -0.01851460 -0.00000000 -0.06807853 -0.00000000 -0.00000000 0.00000000 0.00000000 0.22394232 0.34814298 -0.03322067 0.00000000 -0.00000000 0.00000000 0.00000000 -0.06644699 -0.00000000 0.07790006 -0.03651518 -0.00000000 -0.00000000 -0.23015496 -0.00000000 -0.00000000 0.00000000 -0.00000000 0.00000000 -0.11193690 0.01743904 -0.14445743 -0.00000000 -0.20548066 -0.07220647 0.09465991 0.00000000 0.00000000 -0.00057612 0.00000000 -0.00000000 0.10663494 -0.01244523 -0.00000000 -0.00000000 -0.00638114 0.00000000 0.16530010 0.15403061 0.00000000 -0.04334848 -0.03526474 -0.00000000 -0.12022385 0.00000000 -0.03706424 -0.00000000 0.00000000 -0.17230959 -0.19683237 -0.00000000 0.06645419 0.00000000 0.00000000 0.00000000 -0.00000000 -0.00000000 0.00000000 -0.00000000 0.20658441 -0.06719054 0.20297021 -0.08692873 0.00000000 0.00000000 -0.00068842 -0.00000000 -0.06369367 -0.00000000 -0.10187126 -0.00000000 0.00000000 -0.11019218 0.00000000 0.00000000 0.19315393 0.00000000 -0.00000000 -0.00000000 -0.00000000 0.00000000 -0.00000000 0.00000000 -0.00000000 0.00000000 0.04558672 0.00000000 0.00000000 -0.00000000 -0.00000000 0.02622024 0.00000000 0.00000000 0.02351459 0.21703812 0.00000000 -0.03849669 0.00000000 -0.00000000 0.05792410 -0.00000000 -0.17869970 -0.00000000 -0.00000000 -0.03541524 0.00000000 0.00000000 -0.11788212 0.06070666 0.03713100 -0.25829193 0.00000000 0.07749376 0.00000000 0.11868646 0.00000000 -0.15310167 -0.15946740 0.00000000 -0.15135415 -0.22974153 0.00000000 0.07853892 -0.29749286 -0.39454889 0.00000000 -0.37407169 -0.12844238 -0.00000000 0.00000000 0.40939188 -0.00000000 -0.00000000 -0.15596107 -0.09486357 -0.00000000 -0.00000000 0.00000000 0.17115878 0.00000000 0.01891723 0.00000000 0.00000000 -0.16081142 0.00265809 -0.00000000 -0.00000000 -0.19665208 0.00000000 -0.00000000 0.01172341 -0.00000000 -0.00000000 -0.02335411 0.01199235 0.10103822 0.11015817 -0.15917851 -0.00000000 -0.00000000 0.01942376 0.13354906 -0.01407871 -0.00000000 -0.01166077 -0.00000000 0.00000000 0.11360404 -0.00521600 -0.02674352 0.20618165 0.00000000 -0.21041353 0.08411666 -0.00000000 -0.15309498 -0.16867524 -0.06925960 -0.27159020 -0.00000000 -0.20495546 0.00000000 -0.03211234 0.00000000 -0.19580765 -0.00000000 -0.20230594 0.01372387 -0.00000000 -0.00000000 0.07557557 -0.00000000 0.17301619 0.02912124 -0.00000000 0.00477277 0.00000000 0.07411239 0.04775937 0.10704578 -0.00000000 -0.00000000 -0.00000000 0.02091930 0.00205799 -0.16397233 -0.00000000 0.21977040 -0.00145777 0.00363567 0.23203957 0.00000000 0.13911484 -0.16208009 -0.14624383 0.00000000 -0.00000000 -0.00000000 0.00000000 0.00000000 0.00000000 -0.00000000 0.00000000 0.06577209 0.01415321 -0.00000000 0.22418864 -0.00000000 -0.00000000 0.19113512 -0.00000000 -0.00000000 0.00000000 -0.17452100 0.00000000 -0.00000000 0.07995552 0.00000000 -0.00883493 0.01101496 0.00000000 0.00000000 0.12989807 -0.02951046 -0.00000000 -0.00000000 -0.20536499 -0.00000000 -0.15606241 -0.00000000 -0.00000000 -0.00000000 -0.00000000 0.00000000 -0.29307869 0.06260619 -0.03536730 0.15272626 -0.00000000 0.00000000 -0.00000000 0.03570599 0.17215905 0.17039916 -0.00000000 0.00000000 -0.00000000 -0.00000000 -0.00925075 0.00000000 0.08227325 -0.00000000 0.00000000 0.00000000 0.12874898 -0.02367283 0.11602309 0.18509041 -0.11245530 0.09005968 0.00229056 -0.00775256 0.00000000 0.06111978 0.12327899 0.00000000 0.09455023 0.03195042 -0.00052682 -0.00000000 -0.11669805 -0.04559295 -0.03730478 0.00000000 -0.13542905 0.00000000 -0.00000000 0.11510617 0.00000000 -0.00000000 0.00000000 0.00000000 0.12839957 -0.13571756 -0.00333168 0.11315990 -0.00000000 -0.11105255 0.10525743 0.00000000 0.00000000 0.00000000 -0.18873492 -0.00000000 -0.08015251 0.07052577 -0.00000000 -0.00000000 0.18487909 -0.00000000 -0.00000000 0.00000000 -0.01520438 -0.06989348 0.00000000 -0.00000000 0.16235833 0.09770259 -0.23059516 -0.00000000 -0.00000000 0.06136152 0.19861238 -0.00000000 0.00000000 -0.00117302 0.00000000 0.00000000 0.00000000 -0.13469768 0.18312566 0.00000000 -0.12143628 0.16141115 0.00000000 0.04492680 -0.00000000 0.00000000 -0.00000000 -0.02163789 -0.00000000 0.00000000 -0.00000000 -0.01734227 0.08865160 -0.00000000 -0.15532789 -0.13395505 0.00000000 -0.00000000 -0.19423176 -0.00000000 0.00000000 0.14518403 0.00000000 0.08573787 -0.00000000 -0.00000000 -0.04520134 0.00000000 0.00000000 0.00000000 0.00000000 -0.00000000 -0.17469350 0.04671317 0.00000000 -0.00000000 -0.27735379 -0.13520122 -0.08580139 0.10929193 -0.02306013 -0.11528827 0.06607486 0.00000000 -0.00953307 -0.00000000 0.00733059 0.27544373 0.00000000 0.00000000 -0.00000000 -0.09361477 0.10362234 0.10298771 0.02970969 0.00000000 -0.03578182 -0.18854611 0.14678761 -0.07664057 -0.00000000 -0.09120532 -0.00000000 0.00000000 -0.10632136 -0.16098136 -0.30937853 0.00000000 0.00000000 -0.10860319 0.14808927 0.01819818 0.00000000 0.01263506 0.00000000 0.00000000 -0.05357756 -0.13009952 0.00000000 -0.00000000 -0.04654144 0.00000000 0.00000000 0.00000000 0.02755179 -0.00000000 0.08464988 -0.10573561 0.00000000 -0.00000000 -0.00000000 -0.06011299 -0.00000000 0.11692974 -0.00000000 0.00000000 -0.00000000 -0.28769198 -0.19841067 0.14466248 -0.00000000 0.04054029 -0.00000000 0.00000000 0.00000000 0.08491820 -0.10690242 0.06560321 0.08731519 0.10462549 0.00000000 0.17076409 -0.00000000 0.00000000 -0.22115290 0.00000000 0.00000000 0.00000000 0.00000000 0.19488420 -0.00000000 -0.00000000 0.00000000 0.05978621 0.11638099 0.00000000 0.13605122 -0.00000000 0.00000000 0.00000000 -0.10818619 -0.08992326 0.05301625 -0.12147863 -0.06202833 -0.06779893 -0.00000000 0.28266326 0.15674305 -0.00366880 0.00000000 -0.00000000 -0.00000000 -0.17516182 0.00000000 0.00000000 -0.08304761 0.00000000 -0.00000000 0.05523037 0.00000000 -0.02807403 -0.18754430 -0.17020845 -0.03283774 -0.00000000 -0.06243954 0.03499100 0.00000000 -0.00000000 0.01127064 -0.00000000 -0.00000000 -0.00000000 0.08685832 0.00000000 -0.03849758 -0.16559705 -0.00000000 0.00000000 -0.00000000 -0.00000000 -0.00000000 0.01875568 0.00000000 0.00000000 0.14425901 0.00000000 0.00000000 -0.00000000 -0.21765424 -0.00000000 0.04496966 -0.10227342 -0.00254473 0.00000000 0.02268885 0.00000000 -0.00000000 0.00000000 0.05138934 -0.05698684 0.12225081 -0.04084054 0.16781479 -0.00000000 -0.00000000 -0.08237670 0.00000000 -0.12903824 -0.00000000 -0.00000000 -0.03890109 0.00000000 0.00000000 -0.00000000 -0.06928569 -0.00000000 -0.00000000 0.00218033 -0.00000000 0.00000000 -0.00000000 -0.00000000 0.00000000 0.00000000 -0.00000000 -0.00000000 -0.02875745 0.01196021 0.00000000 0.09596469 -0.03022504 0.00000000 0.00000000 -0.21514715 0.27878609 -0.22113021 -0.00673697 0.08802870 -0.03319342 -0.00000000 0.00000000 -0.25144219 0.04390530 0.14984681 0.00000000 -0.00000000 0.17161080 -0.00000000 -0.00421918 -0.30025440 0.00000000 -0.09041671 0.00000000 0.13612624 0.08515725 0.00000000 -0.01640803 -0.27317390 0.18822792 -0.07166812 -0.06734572 -0.08035884 -0.00000000 -0.04425356 0.06928685 -0.00000000 -0.00000000 0.00000000 -0.00000000 0.00000000 -0.13700306 -0.00000000 -0.03345315 0.00000000 -0.28591132 0.07109888 0.19326372 0.00000000 0.09895558 -0.13150446 0.00000000 0.00000000 -0.00000000 -0.11082426 0.00000000 0.00000000 -0.17821096 -0.00000000 -0.02255206 -0.00000000 0.11198036 -0.26777092 -0.00000000 0.15638641 0.00000000 0.00000000 0.05160019 -0.31443083 -0.23097344 -0.09182531 0.00000000 0.06936131 -0.00000000 -0.18793768 0.01625144 -0.00000000 0.00000000 -0.00000000 -0.00200153 -0.06125169 0.03355890 -0.00000000 0.00000000 0.00000000 0.00000000 0.02794697 -0.09027036 0.08974508 -0.00000000 -0.19357458 0.00000000 0.00000000 -0.04383522 -0.00000000 -0.01929230 0.00000000 0.00000000 0.08257136 -0.49430388 0.00000000 0.18386841 -0.07258695 0.00000000 -0.18218036 0.06949665 0.26914874 0.00000000 -0.15963465 0.24909620 0.00000000 0.00000000 0.11887600 -0.15067288 0.00000000 -0.00000000 -0.00000000 0.00000000 0.00000000 0.02357913 -0.00526121 0.05163306 0.06632281 -0.00000000 -0.00000000 0.00000000 0.04053479 0.08762801 0.01259941 -0.00000000 -0.09270082 -0.00000000 0.17347369 -0.01842038 0.00000000 -0.00000000 0.10106704 -0.00000000 0.30837542 0.00000000 -0.11291631 0.10319369 -0.00000000 0.00390382 -0.26320237 0.00000000 0.10347699 -0.21106036 -0.07103148 -0.00000000 -0.00000000 -0.04684682 -0.11011333 -0.00621996 0.00000000 -0.25182521 0.00000000 0.07528307 0.11293016 -0.00000000 0.00000000 0.00000000 0.15982589 0.00000000 -0.00000000 0.00000000 -0.09044485 0.05190636 -0.00000000 0.02754970 -0.06722908 0.12284111 -0.02215888 0.04109258 -0.10805870 0.01021937 -0.00000000 -0.14902286 0.04671562 -0.01320414 0.14967142 -0.01628290 0.09578330 0.12906998 0.00000000 0.34217525 -0.00000000 -0.22428168 -0.00000000 0.00000000 0.00000000 -0.00000000 0.00000000 0.17163253 -0.01811527 0.00000000 -0.12036186 0.00000000 0.15293929 -0.00000000 0.00000000 0.00755993 -0.00000000 0.00000000 -0.00000000 0.27801174 0.21242629 -0.00000000 0.00000000 0.23273069 0.00000000 -0.00000000 0.00916401 -0.06672788 -0.00000000 -0.06482869 -0.00000000 -0.15824156 -0.19162308 0.00000000 -0.00000000 0.00000000 0.00000000 0.00000000 -0.00000000 -0.13112399 -0.20243248 -0.18713830 -0.13046709 0.06396967 -0.11621334 -0.30024150 0.15556201 0.00222858 0.00000000 -0.00000000 -0.02172239 -0.02886804 -0.06900258 0.00000000 0.00000000 0.09632801 0.00000000 0.00000000 0.12340403 -0.12222420 -0.09059030 0.03283164 0.06648286 0.07588510 0.00000000 -0.00000000 0.00000000 -0.00000000 0.00000000 -0.17745893 -0.13744462 -0.00000000 -0.03675172 0.00000000 0.00000000 -0.00000000 0.00000000 -0.14052425 -0.00000000 -0.00000000 0.00000000 0.00000000 -0.00000000 0.21607469 0.00000000 0.00971106 -0.00000000 0.12809750 0.06309366 0.07603889 0.09879813 0.02076124 -0.00000000 -0.06331960 -0.00000000 -0.00000000 0.00000000 -0.00000000 -0.00000000 0.22422445 0.03920856 0.14364128 0.00000000 0.00000000 -0.00000000 -0.08955665 -0.00000000 0.11938135 -0.00000000 0.15757202 -0.09729714 0.00000000 0.00000000 0.00000000 0.00000000 -0.00000000 -0.00000000 -0.00000000 -0.17440577 0.06874758 -0.19635634 -0.00000000 -0.00000000 -0.00000000 0.00000000 0.00000000 0.09037741 0.00000000 -0.00000000 -0.07962485 -0.14198792 0.11463282 0.14744422 0.00000000 0.00000000 -0.01942344 0.00000000 -0.00000000 -0.00000000 0.16616648 0.25749552 -0.00000000 -0.07991536 0.00000000 -0.04819356 -0.01310650 0.00000000 0.11410208 0.00000000 0.10408393 -0.05567143 0.00000000 -0.00000000 0.00000000 -0.06916618 0.00000000 0.20887105 -0.00000000 -0.07024035 0.00000000 -0.00000000 -0.00000000 -0.00000000 0.09229428 -0.16069120 0.00000000 -0.00000000 -0.05532288 -0.06626298 0.00000000 0.00000000 -0.02231257 0.26605445 -0.11605065 0.00000000 -0.00000000 0.00000000 0.00000000 -0.00000000 0.06008711 0.09816366 -0.00000000 -0.05142715 0.01294577 -0.00000000 -0.00000000 0.00000000 -0.02431984 -0.00000000 0.20128612 -0.20673512 -0.14156021 0.00000000 0.00000000 0.00000000 -0.00000000 -0.12437708 0.06816589 -0.00000000 -0.00000000 0.00430470 -0.01678907 0.00000000 0.00000000 0.14154769 -0.17306399 0.00000000 -0.00000000 0.00000000 0.19337662 -0.00000000 -0.22840761 0.12485451 -0.12884337 -0.12232391 -0.04451083 -0.00000000 -0.01891620 0.00000000 -0.00000000 0.00000000 -0.10057165 0.00000000 -0.10937694 0.01826961 0.18048759 -0.10831632 0.00000000 0.00000000 -0.10625535 0.00000000 -0.07189953 -0.02752061 0.14048511 -0.11985052 0.00000000 0.00000000 -0.05679152 0.00000000 0.00880061 -0.20598260 0.00000000 0.13178356 -0.10899651 -0.14643513 -0.00073703 0.02483943 0.08212243 0.13259894 -0.00000000 0.00000000 0.00717258 0.00000000 0.00000000 -0.00000000 -0.00000000 0.00000000 -0.06769045 -0.20879349 0.00000000 0.00000000 -0.02039736 0.00000000 0.17174587 0.21071112 0.11551369 0.00000000 -0.17730217 -0.00000000 -0.03704612 -0.00000000 -0.03440315 0.04117670 0.03746464 -0.34235725 -0.20428704 0.29853442 0.00000000 0.04605708 0.19239472 -0.00360049 -0.07167455 -0.03274671 -0.00000000 0.17323485 0.12549178 -0.03108910 0.01751411 -0.17592272 0.00000000 0.22734031 0.16144755 0.04914475 0.03794830 0.04713665 0.00000000 -0.00000000 -0.14503717 -0.00000000 -0.13249348 -0.00000000 -0.00000000 -0.00000000 0.00000000 0.20708279 0.28332660 0.00000000 -0.03533535 -0.00000000 -0.04433451 -0.00000000 -0.00863126 0.00000000 0.04073318 -0.02887844 -0.00000000 0.00000000 0.11103633 0.00000000 0.01157575 -0.17742412 0.00000000 0.05070641 0.00000000 -0.17412065 -0.14655343 -0.00000000 -0.09251130 -0.00000000 -0.19274239 0.00000000 -0.00000000 -0.12492542 0.00000000 -0.02514519 -0.00000000 -0.00000000 0.22111326 -0.00000000 -0.11848679 -0.00000000 0.00000000 -0.00000000 -0.00000000 -0.00000000 -0.00000000 0.01334516 0.00621761 -0.00000000 -0.01277469 0.01864423 0.00000000 -0.00000000 -0.00402508 -0.07535540 0.00000000 0.00236265 0.17624156 -0.00000000 0.00000000 0.18643986 -0.00000000 0.00000000 -0.00000000 0.19140182 -0.00000000 0.07432855 0.11234899 0.00000000 0.23105317 0.00000000 0.03905974 0.00000000 0.08902147 -0.00000000 -0.22014584 -0.00000000 -0.11357785 0.00000000 -0.05840144 -0.15928662 -0.09952863 -0.00000000 -0.06163116 0.10369218 -0.00000000 0.13632724 0.00000000 0.18762171 0.06134703 -0.00000000 -0.09838904 -0.00677247 -0.00000000 0.08052868 0.00000000 -0.08861262 -0.04197391 0.06970210 0.00000000 0.10527252 0.19233419 -0.21732976 0.02531413 0.00000000 0.00000000 -0.14342187 -0.00000000 0.00000000 -0.00000000 0.00000000 0.00000000 0.05545018 0.06084434 -0.00000000 0.18952277 -0.05549923 -0.00000000 -0.00000000 -0.00000000 0.00000000 -0.00000000 0.01489544 -0.00000000 0.02446418 0.25368404 -0.20876811 -0.00000000 -0.07060023 0.09674392 -0.08349624 0.03248176 -0.13528371 0.05714808 0.00000000 0.00000000 -0.00000000 0.00000000 0.14844331 0.00000000 0.03826971 -0.10834837 0.19573459 -0.15040591 -0.00000000 0.00000000 0.01293151 -0.00000000 0.02203383 -0.00000000 0.00000000 0.00000000 -0.00000000 -0.00000000 -0.01043554 -0.00000000 -0.04147135 -0.00000000 0.00000000 0.07918523 -0.12935941 -0.14389406 -0.09117364 -0.07587899 0.04732090 -0.00795200 -0.00000000 0.04159512 0.00000000 -0.00000000 -0.02588808 0.13457961 -0.00000000 -0.00220303 -0.04677807 -0.00000000 -0.00000000 -0.00000000 0.00000000 -0.16809534 -0.00000000 -0.00000000 0.00000000 -0.14221720 -0.00000000 0.00000000 0.00000000 -0.20074986 0.05022288 0.11167488 -0.00000000 0.00000000 0.00000000 0.00000000 0.00761770 -0.00000000 -0.01519165 0.06016871 0.24795508 0.00000000 0.00000000 -0.00000000 -0.13200454 0.00000000 -0.00000000 0.00000000 -0.20438078 -0.00000000 -0.09458693 0.00000000 -0.04443048 0.00000000 0.12529744 0.04223099 -0.00000000 0.00000000 -0.00000000 -0.05491106 -0.01866193 -0.21982549 -0.30491367 -0.21817231 -0.00000000 0.00000000 0.01597404 -0.13606994 0.02804762 -0.00000000 -0.00000000 0.00429554 0.24335714 -0.00000000 -0.00000000 -0.04035057 0.00000000 -0.00000000 -0.00000000 -0.00995625 -0.00000000 -0.00000000 -0.04707412 0.00000000 -0.00000000 0.13192306 0.02817541 0.13650295 -0.18171452 0.00000000 -0.00000000 -0.00000000 -0.00000000 0.00000000 -0.00000000 0.18195392 0.25766596 -0.13743076 -0.11977576 -0.00000000 0.03351145 -0.00000000 -0.00000000 0.08709294 0.00000000 0.22842523 0.00000000 -0.00000000 -0.00000000 -0.00303470 0.08060781 0.00000000 -0.00000000 -0.00000000 0.00000000 -0.00000000 -0.04705223 -0.00000000 0.00000000 0.08593298 0.03461459 0.00000000 -0.13650383 -0.00000000 0.00000000 0.02665122 0.00000000 0.00000000 -0.03360369 -0.00000000 0.00000000 0.00000000 0.11605090 -0.00000000 0.00000000 -0.02165158 0.22456139 0.00757470 -0.00000000 -0.00000000 -0.19106911 -0.16462323 0.00000000 0.00000000 0.03863421 -0.11093056 0.00000000 -0.00000000 0.00000000 0.06943019 -0.00000000 0.14852010 -0.00000000 0.18366061 0.00000000 0.03491195 0.00562216 0.00000000 -0.00000000 0.00000000 -0.00540716 -0.04359778 0.00000000 0.00000000 0.18803324 -0.00000000 0.06072728 -0.00000000 -0.18248941 0.11145914 -0.01840305 -0.00000000 -0.04331351 0.11770173 0.00000000 0.14825958 -0.14405069 0.00000000 0.00000000 -0.02697235 -0.00000000 0.00000000 0.00000000 0.08846909 0.13867155 -0.00000000 0.00000000 -0.00000000 -0.00000000 -0.00000000 0.12962833 -0.00000000 0.00000000 -0.00000000 -0.31092176 -0.00000000 0.00000000 -0.03134071 -0.16296154 -0.00000000 0.00000000 0.00000000 -0.00000000 0.02203011 -0.09445681 -0.00000000 0.00000000 0.01608180 -0.00000000 0.19366297 0.23010467 -0.00000000 0.00000000 0.00000000 -0.01931415 0.00000000 -0.00000000 0.02925470 -0.00000000 0.00000000 -0.03289284 0.00000000 0.00000000 -0.20904645 0.01186912 -0.00000000 0.17421715 0.00000000 0.00000000 -0.00000000 0.16859141 0.14751029 -0.00000000 0.00000000 -0.00894531 0.00000000 -0.00000000 -0.00000000 -0.02434061 0.16357993 0.00000000 -0.00000000 -0.03630646 -0.02566301 -0.14580522 -0.07504331 -0.18657929 -0.16521217 0.00000000 0.00000000 0.05789755 0.06115562 0.00000000 -0.01701497 -0.00000000 0.00000000 -0.00000000 0.00000000 0.04885316 0.00000000 -0.00000000 -0.00033183 0.22620696 -0.00000000 -0.03149020 0.00000000 -0.00000000 0.00000000 -0.06543048 0.27855721 0.17474799 0.05540203 -0.10140086 -0.00000000 0.00000000 0.00000000 0.05859720 0.00000000 0.19042045 0.16002433 0.00000000 -0.00000000 -0.00000000 0.00000000 -0.11635502 -0.07703350 0.00000000 -0.06249831 0.00000000 0.16961882 -0.03702551 -0.00925994 -0.13249856 -0.16736887 -0.00000000 -0.00835917 0.00000000 0.15369901 0.00000000 0.16570839 0.00000000 -0.00000000 -0.19105534 0.03756786 -0.17227873 -0.14474115 -0.00000000 0.03861707 -0.12619805 -0.00000000 0.09522321 -0.12271258 -0.12212516 -0.00000000 -0.08689405 0.00000000 -0.09662597 0.03009926 0.06212756 0.00436246 0.00000000 0.00000000 0.00000000 -0.00658019 -0.10690930 0.00000000 0.05393010 0.00000000 0.11212417 0.00000000 -0.00000000 0.00000000 -0.15534481 0.13187502 0.00000000 -0.07017342 -0.14458081 0.00000000 -0.00000000 -0.00000000 0.00000000 0.00000000 -0.00000000 -0.13135788 0.00000000 -0.00000000 0.00000000 -0.00000000 0.00000000 -0.00341867 0.00000000 0.04361723 -0.00000000 0.00000000 -0.00821376 -0.00000000 -0.03851856 -0.00000000 -0.00000000 -0.02351604 0.03221818 -0.19606957 -0.00000000 -0.00000000 -0.02490302 -0.02705713 -0.00000000 0.00000000 -0.09036259 0.00000000 -0.05834867 -0.14404546 -0.00000000 -0.10036270 0.00000000 0.00000000 -0.00000000 0.07654586 0.18453304 0.00000000 0.21086657 0.10199440 -0.00000000 -0.05037166 -0.03768621 -0.04513549 0.00000000 -0.00000000 0.12336288 0.14230548 -0.00000000 0.15770258 -0.01016476 -0.00000000 0.03389770 0.06837209 -0.00000000 -0.07175599 0.00000000 0.00000000 0.00000000 -0.14762181 0.26833916 0.12787499 -0.00000000 -0.00889402 0.03796804 0.18049319 0.20556289 -0.08219643 0.01814490 -0.00000000 -0.16946629 -0.00000000 0.00000000 -0.00000000 0.00000000 -0.00000000 0.00000000 0.00000000 -0.31336078 0.17203031 -0.00000000 0.00000000 -0.00000000 0.00000000 -0.25127363 -0.18750893 0.18920775 -0.09660979 -0.00000000 0.03645593 -0.07695892 -0.00000000 -0.00000000 0.08288592 -0.05223271 0.11177887 -0.09734037 0.00000000 0.00000000 -0.25150415 0.00000000 0.00000000 0.00000000 -0.02641851 0.00000000 0.13793422 0.00000000 0.00000000 0.00000000 0.00000000 0.00000000 -0.24428640 -0.04388765 0.00000000 -0.00000000 0.00000000 -0.00000000 0.69790423 -0.00000000 0.20471974 0.20327079 0.00000000 0.08439186 0.16723362 0.21428072 -0.00000000 -0.00000000 -0.00000000 -0.07314452 -0.00000000 -0.00000000 -0.04728407 0.07068868 -0.00000000 -0.07699794 0.14947125 0.09815397 -0.00000000 -0.10523427 0.16279487 0.23292871 0.00000000 0.00000000 0.15477201 -0.00000000 -0.00000000 0.08775025 -0.14444575 -0.00000000 -0.04376177 0.00000000 0.07658119 0.00000000 0.00000000 -0.00000000 -0.00000000 0.00000000 0.06601661 -0.00000000 0.06961796 -0.00000000 -0.00000000 0.17648183 0.00000000 0.00000000 -0.14095114 -0.05545930 -0.00000000 0.12972297 -0.10680925 -0.00000000 0.00000000 -0.09618502 0.00000000 -0.00000000 0.18456469 0.12994803 -0.00000000 -0.00000000 -0.00000000 -0.00000000 0.04820832 0.05698352 0.02761293 0.22473156 -0.10775037 -0.00482528 0.00000000 -0.00000000 0.00000000 -0.01195782 -0.00000000 -0.00000000 0.12191371 0.02016237 -0.12849724 0.02196611 -0.00000000 0.00000000 0.09271473 -0.17607996 -0.04930782 -0.00000000 -0.12261953 0.00000000 0.00000000 -0.15302657 -0.00000000 -0.16907103 0.00000000 -0.11255509 -0.00000000 -0.13654695 -0.02340514 0.00000000 -0.00000000 0.14300530 -0.09963358 0.20735495 -0.00000000 -0.00000000 0.00000000 0.00000000 -0.00000000 0.12515965 0.00000000 -0.30039424 0.00000000 0.05879981 -0.17447241 -0.00000000 0.00000000 -0.12718387 0.03866622 -0.00000000 -0.00000000 -0.21071137 -0.19978952 -0.01310679 -0.10738040 -0.00000000 -0.01486464 0.00000000 -0.17960431 0.00000000 0.00000000 0.06744506 -0.00000000 0.04159010 0.00000000 0.15085426 0.09246822 -0.06776064 -0.00000000 -0.00000000 -0.19966775 0.00000000 -0.00000000 0.00000000 -0.00000000 -0.00000000 -0.00000000 -0.05800036 -0.00000000 0.00000000 -0.00000000 -0.00000000 0.00000000 0.00000000 0.00000000 -0.00000000 0.11777046 0.00000000 0.15440619 -0.00000000 -0.00000000 0.00000000 -0.00000000 0.00000000 -0.00000000 -0.07514041 0.00000000 0.02426710 -0.00000000 0.17727001 0.00000000 -0.00000000 -0.01492065 0.00000000 -0.00000000 -0.25172371 -0.11477616 -0.06065780 0.05151939 0.00000000 -0.20229486 -0.12660021 0.06955093 0.00000000 0.00000000 -0.17388310 -0.09237528 -0.00000000 -0.08366930 0.19303870 0.16627856 0.22225706 -0.12243585 0.00000000 0.00567206 0.00000000 -0.11620390 0.00000000 -0.00000000 -0.13856930 -0.22455394 -0.20399052 -0.00000000 0.12807819 0.00000000 0.00000000 0.16976498 0.00000000 -0.13832079 -0.18552347 0.00000000 -0.00000000 0.00000000 -0.14064017 -0.00000000 -0.00000000 -0.05032453 -0.08213887 -0.00639997 0.15768927 0.21558771 0.14491037 0.13645513 -0.00532592 0.22400276 0.13834539 0.09716283 -0.00000000 0.00000000 0.00000000 -0.17393142 -0.03406018 -0.12209544 0.00000000 -0.00000000 -0.17669339 -0.11397707 -0.00891624 0.00000000 -0.12046748 -0.29318619 -0.00000000 0.00444660 -0.08929265 0.00000000 0.00000000 0.00000000 0.00000000 -0.00000000 -0.00000000 -0.10193777 0.02580167 0.16780676 0.18716963 0.00000000 0.14146335 -0.27985227 -0.22104797 0.04812427 -0.00000000 0.17679283 -0.00000000 0.14389808 0.00000000 -0.00000000 0.19237062 0.08384047 -0.00000000 -0.09704071 -0.04875672 -0.18746896 0.11476615 -0.00000000 0.00000000 0.00000000 -0.00000000 0.10974923 0.00000000 -0.26334262 -0.00000000 0.08227878 0.00000000 0.00000000 -0.00000000 0.00000000 0.10747508 0.00000000 -0.00000000 0.00000000 0.00000000 0.00000000 -0.00000000 0.02082827 -0.04457207 -0.02542653 -0.00000000 0.00000000 -0.08254666 -0.00000000 0.00000000 -0.00000000 -0.26274067 0.00000000 0.10709246 0.00537874 0.00000000 -0.03546188 0.00751356 -0.00000000 -0.00000000 -0.27805400 -0.00000000 -0.08390140 0.08795032 0.06280853 0.00000000 -0.00000000 -0.00000000 0.05640975 -0.16490759 0.00000000 0.00000000 0.00000000 -0.00000000 0.14085887 -0.00000000 -0.25948057 -0.11466567 -0.03255694 0.00000000 0.00000000 0.00000000 0.12132154 0.08828525 -0.00000000 0.00000000 0.11549357 0.00000000 0.00000000 -0.08121327 0.06361230 -0.00000000 0.00000000 0.00000000 -0.03863228 -0.12316354 -0.01937591 0.06271774 0.00000000 -0.02821685 -0.00000000 -0.00000000 -0.00000000 -0.00000000 0.12661001 0.02566505 -0.00000000 -0.03962894 -0.19313279 0.00000000 -0.15256517 -0.02791374 0.06289382 0.00000000 -0.10479970 -0.00000000 -0.31611758 -0.16157077 -0.00000000 -0.00000000 0.16848166 -0.19262379 -0.00000000 -0.17414151 -0.00000000 0.00000000 -0.00000000 0.11556220 -0.10826381 -0.05008047 0.00000000 0.00000000 -0.00000000 -0.17674707 0.25935245 -0.00000000 -0.05365703 0.07485781 -0.00000000 -0.00000000 -0.03053662 -0.00000000 0.20630729 0.23254633 -0.00000000 0.04076952 0.00000000 0.13589655 0.02302530 -0.00000000 -0.09588728 -0.00000000 -0.00000000 0.00000000 -0.08413674 -0.00000000 -0.00000000 -0.00000000 -0.21067351 -0.21627924 0.00000000 0.13198389 0.12123362 -0.15341540 -0.00879362 0.00759032 0.00000000 -0.04635656 0.00000000 0.00000000 -0.03771475 -0.06633720 -0.00925214 0.00000000 0.03529018 0.20680760 -0.00000000 -0.24824275 0.00000000 0.00000000 -0.17801879 -0.22372305 -0.22560546 -0.17011395 0.09875496 -0.18994866 -0.00000000 0.11210755 -0.00000000 -0.00000000 0.00000000 -0.15855786 -0.00000000 0.04488965 -0.08961973 0.00044024 0.14192064 0.26987737 -0.00000000 -0.07377713 0.09965453 0.00000000 0.00000000 0.08240444 -0.00000000 0.23878814 0.00000000 0.04506297 -0.04856043 -0.01516228 -0.07722295 -0.00000000 -0.00000000 0.00000000 0.21395731 -0.04018204 -0.09888565 -0.00000000 0.00000000 0.09323437 -0.00000000 -0.00000000 0.17650092 -0.00000000 -0.00000000 0.00000000 -0.00000000 0.04640878 0.00000000 -0.00000000 0.00000000 0.00000000 -0.00000000 -0.12418379 0.00000000 0.10579711 0.00000000 -0.18600138 -0.00000000 0.00890446 -0.00000000 -0.00000000 -0.00000000 0.00000000 -0.00000000 0.13944033 0.00000000 -0.19419380 0.00000000 -0.00000000 -0.10875615 0.00000000 -0.00000000 -0.00000000 0.00000000 -0.25383756 -0.31043395 0.00000000 -0.03288917 0.08862711 -0.00000000 -0.14163496 0.20279090 -0.25130516 -0.31198263 0.00000000 -0.05719033 -0.00000000 0.07924543 0.13390371 0.14080331 0.00000000 0.13864270 0.00000000 -0.00000000 0.00000000 0.00000000 -0.08113658 0.26172215 0.03699926 -0.14305882 0.00000000 0.00000000 0.00000000 -0.00000000 -0.00000000 -0.00000000 0.18434986 0.22601233 -0.09570292 -0.13466008 -0.00000000 0.00000000 0.08421806 -0.00000000 -0.05877053 0.21772854 0.00000000 -0.00000000 -0.00000000 -0.08509088 -0.00000000 0.16600975 -0.10440986 0.00000000 -0.15857689 0.00000000 0.00000000 -0.11039947 0.00000000 0.14778796 -0.00000000 -0.05934556 -0.00000000 -0.00000000 0.00000000 0.01930139 0.00000000 -0.18246956 0.28643471 -0.00000000 -0.00000000 0.18938453 0.07928611 0.00000000 -0.00000000 0.00000000 -0.01380704 0.00000000 0.04336556 -0.00000000 0.00000000 -0.00000000 0.00000000 -0.00000000 0.26468310 -0.15389976 -0.03513717 0.10949689 0.00000000 -0.00000000 0.10629924 -0.00000000 -0.17203611 0.19646020 -0.00000000 -0.00000000 0.01800930 0.15803839 -0.00000000 -0.08494467 -0.01705251 0.00000000 0.12459008 0.00022404 -0.00000000 -0.02564688 0.00000000 0.00000000 0.00000000 -0.00000000 -0.00000000 0.07954546 0.13023743 0.00000000 -0.07524296 -0.00000000 0.21026863 -0.15367045 0.12161124 0.13246971 0.15446247 0.27531767 -0.00000000 -0.00000000 0.19758028 0.26275671 0.02662010 -0.06172871 -0.00000000 0.04083263 -0.08827673 0.00000000 -0.18913434 0.00000000 -0.00000000 0.00000000 -0.07224566 -0.15511239 0.00000000 0.00000000 -0.00000000 0.00000000 0.00000000 0.00000000 -0.00000000 -0.00000000 0.00000000 -0.15524085 -0.00000000 0.14125840 -0.20561208 0.00000000 0.00000000 0.00000000 0.00000000 0.00000000 0.00000000 -0.00000000 -0.00000000 0.00000000 -0.00000000 -0.00346740 -0.18383718 -0.20105080 0.10747574 0.23122109 -0.05750876 -0.04190020 0.00452909 -0.00000000 0.00000000 -0.20809484 -0.08507254 0.00000000 0.21967967 -0.00000000 -0.12132975 0.08131031 -0.01968088 -0.00000000 -0.00000000 0.11786353 -0.00000000 -0.10986946 -0.12664630 -0.00000000 0.06038923 0.00000000 0.00000000 -0.00000000 -0.11450868 -0.21367517 0.00000000 -0.00000000 -0.14214350 0.06781267 0.00000000 0.00000000 -0.11807034 -0.06031086 -0.00000000 0.00000000 0.20648548 -0.27031192 -0.10076547 0.00000000 -0.00000000 -0.00000000 -0.00000000 0.01629358 -0.00000000 -0.00000000 0.00000000 0.00000000 0.21577168 -0.05259213 0.00000000 0.00000000 -0.05809082 0.00000000 0.02991936 -0.00000000 -0.00000000 -0.02095813 -0.00000000 -0.00000000 -0.00000000 0.00000000 0.02233192 0.05372436 -0.00000000 0.00000000 0.03688936 0.14375605 0.12626185 0.05336583 -0.14155342 -0.00000000 -0.26567808 -0.14510244 0.06016705 -0.22531481 0.03907492 -0.00000000 -0.00000000 0.00000000 -0.00000000 -0.12632190 0.23050050 -0.10289802 0.00000000 0.14137807 0.00000000 0.23742157 0.00000000 0.01304355 -0.04891388 0.19177772 -0.17805174 -0.10201887 0.00000000 -0.00000000 -0.00000000 0.11755473 -0.00000000 -0.06232832 0.00000000 -0.16169776 -0.00000000 -0.00000000 0.14578106 0.00000000 -0.05256750 -0.21988930 0.07815519 0.14501294 0.00000000 -0.00000000 -0.14516495 0.00000000 -0.00000000 -0.00000000 0.14437185 0.00000000 0.00000000 0.00820751 -0.20777997 0.18013869 -0.15413839 -0.26106247 0.00000000 -0.00000000 -0.00000000 -0.08592565 -0.00000000 0.03507590 0.00000000 -0.18960145 -0.00000000 0.11110792 0.00705379 0.11103147 0.15286760 -0.02202121 0.00000000 0.17282718 0.12307275 0.00000000 0.13584866 -0.05476260 -0.15453748 -0.25564179 -0.00000000 0.00000000 0.00000000 -0.00000000 -0.06556961 -0.07250197 0.03253646 0.03265308 0.00572759 -0.14301506 0.12929989 0.14101213 -0.00000000 -0.00000000 0.00000000 0.12934892 -0.13027969 -0.18590878 -0.18590458 0.10685173 0.12808749 -0.00000000 -0.00000000 -0.00000000 -0.07000306 -0.19964822 -0.12313540 0.11283973 -0.00000000 0.00000000 -0.00000000 0.00000000 -0.06927207 0.00000000 0.06639061 0.00000000 0.00000000 -0.00000000 -0.01463390 0.06907661 0.00000000 0.09159861 -0.04590781 0.12797527 -0.00000000 0.13714060 0.09302711 -0.03167905 0.01547823 -0.11664038 -0.18251631 -0.00000000 -0.08154447 0.10866419 -0.00000000 0.00000000 -0.00000000 0.14212783 0.12055456 0.00000000 0.06833518 -0.10478195 -0.09183525 -0.00000000 0.00000000 0.00000000 0.00000000 0.00000000 0.14193012 0.00000000 0.00000000 -0.00000000 -0.00000000 0.01016209 0.00884674 -0.00000000 0.00000000 0.00000000 0.14000513 0.00000000 0.00000000 -0.08037358 0.00000000 0.19264607 -0.00000000 0.07471396 0.03695286 0.17567600 -0.08901750 -0.12880066 0.00000000 0.06874952 -0.00000000 -0.00000000 0.00000000 -0.00000000 0.00000000 0.00000000 0.12579162 -0.01547417 0.13511169 0.00683399 -0.00000000 -0.16170281 0.00000000 -0.37558761 -0.25758323 -0.00000000 -0.07734928 0.00000000 -0.00000000 0.19067112 0.27231488 0.00000000 -0.00000000 0.03173804 0.10618051 0.22258501 0.00000000 0.17836805 0.17870547 0.01862765 0.18017165 -0.00000000 -0.00000000 -0.12679112 -0.12951496 0.00000000 -0.21875270 -0.21487164 -0.00497500 0.11986893 0.02083610 -0.27657166 -0.03215119 0.00000000 0.00000000 0.03462245 -0.16570231 -0.10519966 -0.00915510 0.00000000 0.00000000 0.00000000 -0.00000000 0.00000000 0.00000000 -0.10441790 0.00168158 0.00000000 0.02514673 -0.00000000 0.00000000 0.00000000 -0.00000000 0.10865505 0.00000000 -0.07093402 -0.00000000 0.01629865 0.19149874 -0.00000000 -0.16995667 -0.16143069 0.18099834 0.00000000 -0.08036748 -0.00000000 -0.00000000 0.00000000 -0.02086986 0.00990493 -0.00000000 0.00000000 0.01166092 -0.00000000 0.16548598 0.00000000 0.00000000 -0.17502590 -0.20466617 0.08813982 0.00000000 0.00000000 -0.16017088 0.00000000 -0.00000000 0.00000000 0.00000000 0.10699730 0.01556528 -0.00000000 0.00000000 0.00000000 0.00000000 -0.00000000 -0.00000000 0.06155042 -0.10163196 0.04179796 0.00000000 0.19593845 -0.00000000 0.00000000 0.04790814 -0.12812871 -0.15883718 0.14208604 -0.00000000 -0.00000000 0.05639043 -0.25200379 0.00000000 0.27059451 -0.00000000 -0.15431322 0.24119844 0.31057936 0.00000000 -0.13460578 -0.19021651 0.08162871 0.00000000 -0.00000000 0.00000000 -0.21798912 -0.11622439 0.16902038 0.02719028 -0.09778959 -0.05948511 -0.00000000 -0.00000000 0.00000000 -0.00000000 0.13720767 0.02284708 -0.00000000 -0.00000000 -0.02877923 0.00000000 0.12490792 -0.00000000 0.00000000 0.07634820 0.00000000 0.21162407 -0.00000000 0.00000000 0.09668768 0.20224905 -0.00000000 -0.00000000 -0.00000000 -0.14946844 -0.01347208 0.14317542 -0.16165958 -0.12337174 -0.04167663 -0.08142709 -0.00196121 0.00000000 0.00000000 0.23749319 0.09509923 -0.26605952 -0.08783650 0.00000000 -0.04257501 -0.13173918 -0.00000000 0.14942092 0.12552023 0.00172938 0.04710237 -0.03843975 -0.00000000 -0.16784751 0.03651839 0.17116114 0.00000000 0.00000000 -0.14888836 0.00000000 0.00000000 0.04850550 -0.00000000 0.00000000 0.00000000 -0.00000000 -0.13528584 0.07143675 0.11941928 -0.03979008 -0.00000000 -0.15085167 0.02352041 -0.04011163 0.00000000 0.06961547 0.00000000 -0.00000000 0.00000000 -0.26458824 -0.12973322 0.07280425 -0.17091653 0.04026398 0.00000000 0.04295400 0.05229587 0.00000000 -0.00000000 -0.00000000 0.00000000 0.14604589 -0.13264146 -0.00000000 -0.00000000 -0.00000000 -0.00000000 -0.00000000 -0.00000000 -0.00000000 0.19822279 -0.00000000 -0.21947335 -0.09326863 -0.03795945 0.00000000 -0.10797461 -0.00000000 0.00000000 0.01450633 0.00000000 -0.10886692 -0.09377769 -0.11679588 -0.00000000 -0.00000000 0.12323594 0.02289239 -0.00000000 -0.00000000 0.00000000 0.00000000 0.30091727 0.18556082 0.00000000 0.00000000 0.00000000 -0.00000000 -0.00000000 0.00000000 -0.28333664 0.02226337 -0.18798855 -0.12214737 -0.00000000 0.00000000 -0.30052802 -0.00533410 -0.15801559 -0.00000000 -0.00000000 -0.00000000 -0.00000000 0.29156327 0.00000000 -0.00000000 -0.00000000 -0.00000000 0.11366634 0.13867263 0.10469130 0.05367834 0.00000000 -0.00000000 0.00334526 0.00000000 0.00000000 -0.00000000 -0.14216600 -0.03070288 -0.00000000 0.00000000 -0.00000000 -0.00000000 -0.12380239 -0.00000000 -0.00000000 -0.19486289 -0.15279877 0.02710139 -0.00000000 -0.14409314 0.00000000 -0.00000000 0.18733342 0.30327195 -0.06001850 0.13565210 -0.00000000 0.00000000 0.23204951 -0.05795253 0.16137919 -0.16789493 -0.08495658 0.00000000 0.00000000 0.00000000 -0.00000000 -0.01132753 -0.00000000 0.25945547 -0.11620197 0.00000000 0.00000000 -0.06030350 0.00000000 0.00000000 -0.00000000 0.22376060 0.00000000 0.10678304 -0.00000000 -0.11430194 -0.00996885 -0.00000000 0.00000000 0.09405025 0.08810370 0.00000000 0.09929077 0.21574266 0.00000000 -0.00000000 -0.18162003 -0.00741465 -0.07378653 -0.00000000 -0.00000000 0.04614373 -0.00286426 0.22378325 0.01710091 -0.00000000 -0.11955781 0.00000000 0.00000000 -0.22250901 -0.03373092 -0.07792453 0.00000000 -0.21540594 -0.18642180 -0.00000000 0.00000000 -0.15004677 -0.21191563 -0.00000000 0.00000000 -0.05565079 -0.00000000 -0.00000000 0.10886820 -0.10266794 0.00000000 -0.15357141 -0.10228679 -0.00000000 0.00000000 -0.00000000 0.00000000 0.00000000 0.14176627 -0.00000000 0.10221665 -0.20513642 -0.26643428 -0.05097855 -0.00000000 0.13030817 0.00000000 -0.33700052 -0.03347823 -0.16735847 0.00683524 0.00000000 -0.17015398 -0.00000000 0.00000000 -0.00000000 0.00000000 -0.00664082 0.22223385 -0.00000000 -0.08470635 0.06868371 -0.07962581 0.00000000 0.00000000 0.00000000 0.00000000 0.00000000 0.00000000 0.15812227 -0.03521089 -0.00857480 0.00000000 -0.00000000 0.00000000 0.00000000 -0.14353342 -0.07262415 0.06359775 -0.00000000 0.00000000 0.04644538 -0.20425239 -0.27191141 -0.17894736 0.00000000 -0.15029615 0.06550751 -0.05015879 0.07666188 -0.00000000 -0.00000000 0.00000000 -0.11650233 -0.00000000 -0.09355248 0.00000000 -0.00000000 0.00000000 -0.07441767 -0.17815094 -0.09118528 0.00000000 0.04771084 -0.00000000 0.00000000 0.32416064 0.01119906 -0.00000000 -0.00000000 0.10351182 -0.11653196 0.00000000 -0.00000000 0.30655366 -0.00000000 -0.00000000 -0.06573423 -0.00000000 0.07761409 0.00164279 0.00000000 -0.00000000 -0.00000000 0.00000000 0.06975859 0.08697526 -0.00000000 0.04087430 0.00000000 -0.00000000 0.01883393 -0.15140109 0.00000000 0.05258583 0.00000000 0.00000000 0.06907430 0.14909884 0.00000000 -0.17114820 -0.01969494 -0.02329807 -0.00000000 -0.00000000 0.11334389 -0.00000000 0.13758759 0.03458116 -0.00000000 -0.20377408 -0.00000000 0.00000000 -0.00000000 0.38738084 0.08268797 -0.26173413 -0.00000000 0.00000000 0.17138794 -0.02079921 -0.00000000 0.00000000 -0.00000000 -0.05945993 0.13790840 0.11627740 -0.00000000 -0.00000000 -0.22619310 -0.00000000 0.07579010 -0.10908633 0.00000000 0.00000000 -0.00000000 -0.13573743 0.00000000 0.00000000 -0.07326858 -0.02787599 -0.09364396 -0.00000000 0.05626385 0.00000000 0.03602593 0.19859101 0.18238346 0.00000000 -0.00000000 0.05271140 -0.06359307 0.00000000 0.00000000 -0.05251510 -0.00000000 -0.11079108 0.00000000 0.06554065 -0.14045835 0.00000000 -0.20563987 -0.13975599 -0.00000000 -0.00000000 -0.13745850 0.08696079 -0.00000000 0.00000000 0.00000000 -0.03462325 0.00000000 0.00000000 0.06875952 -0.00000000 0.00000000 -0.06688003 -0.00000000 -0.01531773 -0.08772749 0.08876183 -0.00000000 -0.00000000 0.00000000 -0.00000000 -0.00000000 0.04319879 -0.17187525 0.00000000 -0.06942083 0.10561524 -0.00000000 -0.00000000 -0.00000000 0.26552716 -0.11527452 -0.10072704 0.14403078 0.02625996 0.07971492 -0.00000000 0.21299808 -0.00000000 -0.11917194 0.00000000 -0.06074715 -0.00111426 0.16555490 0.00000000 -0.05576723 -0.00000000 0.00000000 0.00000000 0.00000000 -0.00000000 -0.01576551 0.08315249 0.00012586 -0.00000000 -0.05443245 -0.00000000 -0.16264868 -0.00000000 -0.00189666 0.00000000 0.06909424 0.05314057 -0.00000000 -0.00000000 0.00000000 0.00000000 -0.00000000 0.00000000 0.10084348 -0.00827086 -0.00000000 -0.19235776 0.00000000 -0.14793374 -0.03125374 0.00000000 0.23842955 0.11484741 0.00000000 -0.04182506 -0.05176116 -0.00000000 -0.25436673 -0.11199324 -0.00000000 -0.00000000 0.00000000 0.03714585 -0.00000000 -0.00000000 0.15072368 0.00000000 -0.08721208 -0.18682176 -0.22999087 -0.00000000 -0.08710955 0.08671021 -0.20801640 0.00000000 0.01700343 -0.00000000 -0.17951033 -0.00000000 0.00000000 -0.00000000 -0.24208181 -0.04113412 0.07432681 -0.00294417 -0.00000000 -0.00000000 -0.11804258 -0.00000000 -0.00000000 -0.12850064 0.00000000 0.08961108 -0.00000000 -0.09701581 -0.05884691 0.00000000 -0.10056624 0.00000000 0.00000000 0.06903350 -0.00000000 0.11405300 -0.08470275 0.00000000 -0.11627854 0.14443012 0.02959395 -0.00000000 0.00000000 -0.00000000 0.00000000 -0.11423492 -0.00000000 -0.06383580 -0.00000000 0.25101492 0.00000000 0.02788008 -0.16523510 0.03432257 0.00000000 -0.00000000 0.00000000 -0.00000000 0.08413761 0.09621227 -0.00249478 0.00000000 0.00781335 -0.00000000 -0.00000000 0.20463084 0.25141677 -0.02202540 -0.11062343 0.13567291 0.02307021 -0.07064334 0.02811785 0.11282603 -0.00000000 0.00000000 -0.08423524 0.00809860 -0.03811876 0.00000000 0.00000000 0.00000000 0.00000000 0.09790466 -0.02686006 -0.00000000 -0.00000000 -0.00595107 -0.01840790 0.00000000 0.01884356 -0.08675961 -0.00000000 -0.00000000 -0.00000000 0.24387273 0.23774289 0.14711154 0.00000000 -0.14180143 -0.07944805 -0.10377174 0.11360537 -0.00000000 0.00782468 -0.00000000 -0.00000000 -0.00000000 -0.00000000 -0.02029358 0.00000000 0.00000000 0.00000000 -0.35356963 -0.19897012 0.00000000 -0.38509083 -0.00000000 0.03711737 0.00000000 0.18682238 -0.00000000 -0.17859972 0.03401447 0.09156599 0.11790743 0.00000000 -0.18506442 -0.17253922 -0.00582177 0.29821512 0.00000000 0.00000000 0.07783493 0.14004949 -0.00000000 0.00000000 0.08910067 -0.00000000 0.12079811 0.00000000 -0.00000000 -0.00000000 -0.00000000 0.08153272 0.04687547 -0.15555024 0.00000000 -0.00000000 -0.01790220 -0.03009176 -0.05310364 0.00000000 0.00000000 -0.02072255 0.00000000 0.00000000 -0.00000000 0.00000000 0.00000000 0.03836968 -0.00000000 0.00000000 -0.00000000 -0.00000000 -0.21906582 0.00000000 -0.00000000 0.11044373 0.00253255 -0.18756609 0.00000000 0.22212623 0.08127414 -0.14565386 -0.00000000 0.03954290 -0.00000000 0.07539314 -0.00000000 -0.00000000 -0.06642952 0.21609814 0.01161787 -0.00000000 -0.10469542 0.00000000 0.32929793 -0.36618170 0.00000000 0.00000000 0.00000000 0.16297267 -0.00000000 -0.17796840 -0.03062186 -0.00000000 0.00000000 -0.05811523 0.00000000 0.14338613 0.19843768 -0.15135378 -0.06933993 -0.00000000 -0.00000000 0.00000000 -0.00000000 0.00000000 0.00000000 0.25068060 -0.00000000 -0.21025668 0.00000000 -0.00000000 -0.00000000 -0.00000000 -0.00000000 0.17905894 -0.00000000 0.22955644 0.00000000 0.11608081 -0.00000000 -0.12375057 0.05981751 -0.00000000 -0.00000000 -0.04059301 -0.00000000 -0.06368461 -0.20829619 -0.00000000 0.00000000 0.00000000 0.00329243 -0.02624511 0.00000000 0.00000000 0.01647066 0.04640002 -0.00000000 0.00000000 -0.00000000 -0.03571314 0.00000000 0.00000000 0.14752565 0.00000000 -0.02539288 0.00000000 0.06631778 -0.00000000 -0.12037001 0.00000000 0.00000000 0.00000000 -0.00000000 -0.00000000 0.07947337 -0.10939718 -0.12864386 -0.00863540 0.07040955 0.00000000 0.04863539 -0.00000000 -0.06641063 0.00491148 0.00000000 0.07318635 0.16906196 0.00000000 0.00000000 0.00000000 0.10808153 0.07944434 0.00000000 -0.00000000 -0.00000000 -0.06705405 0.07877206 -0.00000000 -0.09045553 -0.12010287 -0.08944224 -0.04763403 -0.00000000 0.00000000 0.00000000 -0.00000000 0.00000000 -0.00000000 -0.15745027 -0.00000000 -0.04648402 -0.00000000 0.00000000 -0.00000000 0.00000000 0.00000000 0.00000000 -0.09956620 -0.09208595 -0.00000000 -0.00000000 -0.00000000 0.04380353 0.14251524 0.00000000 -0.02618046 0.18034992 -0.03450009 -0.10900616 -0.07599244 0.14207712 -0.00000000 0.10349374 0.00000000 0.15049137 0.10604472 -0.00000000 -0.09141122 -0.00000000 0.00000000 0.00000000 0.00000000 0.00000000 0.00000000 -0.00000000 0.15246294 0.00000000 0.12264000 -0.00000000 -0.16552895 0.00000000 -0.00000000 0.05382658 -0.10076421 0.12885121 0.06712049 0.00000000 0.16039453 0.00000000 0.00000000 -0.00000000 -0.00000000 -0.09979255 -0.00000000 0.00000000 0.03656200 0.08819973 0.00000000 0.00000000 -0.00000000 0.11737291 0.00000000 0.12839450 0.00000000 0.02981870 -0.02824551 -0.00000000 0.17266253 0.28932658 0.15614502 0.28626588 -0.09968600 -0.04178154 -0.14002481 0.00000000 0.20770590 0.17885977 0.34835345 0.15981488 -0.14724351 -0.00000000 0.00000000 0.00000000 0.11160783 0.04545935 -0.14721644 0.00000000 -0.00000000 0.08059008 -0.18184140 0.00000000 0.24502133 -0.00000000 0.00000000 0.00000000 0.00000000 0.00000000 -0.00000000 0.01425251 -0.00000000 -0.00000000 -0.00000000 -0.07479116 0.06572284 0.00000000 -0.00000000 0.00000000 -0.30561009 -0.00000000 0.18854143 -0.14506936 0.00000000 -0.16052566 0.00000000 0.00000000 0.00331736 0.02470644 0.01443454 -0.15023753 -0.19178128 -0.08299224 -0.12353734 0.09443474 0.14210950 -0.00199979 0.00000000 -0.09561578 -0.00000000 -0.00000000 0.08361056 -0.00000000 -0.14800888 0.03803988 -0.17051943 0.05397695 0.14228046 0.00000000 -0.00000000 -0.00000000 0.00000000 -0.00000000 -0.07838462 -0.00000000 0.00000000 0.21887615 -0.00000000 -0.32080784 -0.10764907 -0.04074924 -0.00000000 0.09498375 0.00000000 -0.00000000 0.18724981 -0.18100084 -0.00000000 0.16842484 -0.01312333 0.00000000 -0.00000000 -0.17266513 0.00000000 0.06178729 -0.00000000 0.15965925 0.08121967 0.00000000 0.29929498 0.00000000 -0.00000000 -0.03605656 -0.14296933 0.01015860 0.03179964 0.00000000 0.00000000 -0.00000000 -0.00000000 0.01902867 -0.14123546 0.16577248 0.03228452 -0.00000000 0.00000000 0.26193157 0.54839355 0.00000000 0.04289588 -0.23050794 -0.00000000 -0.04127767 0.00000000 0.00000000 0.00000000 -0.11525335 0.00000000 0.00000000 -0.00000000 0.00000000 0.04875550 0.17395483 0.00000000 -0.17550451 -0.37607646 0.15055218 -0.00000000 0.00000000 -0.01705812 -0.00000000 0.10147124 0.15775795 0.14145400 -0.00000000 -0.09086508 0.04964766 0.15876812 -0.20702969 0.00906485 -0.00000000 -0.00000000 0.00000000 0.04228584 -0.04163287 -0.00000000 0.00000000 0.00000000 -0.08071972 -0.00000000 -0.08995978 0.03212832 -0.01048980 -0.00000000 -0.00000000 -0.07272386 0.00000000 0.37337273 -0.02022813 -0.03010065 -0.06835292 -0.15326944 0.00000000 0.00000000 -0.08268360 -0.06879222 0.00000000 -0.00000000 0.02230650 0.00000000 -0.00000000 0.20291929 0.14240427 -0.08183354 -0.22951828 -0.08081707 0.10664783 -0.14659551 0.00000000 -0.04449812 0.00000000 0.18464519 -0.00000000 0.00000000 -0.00000000 -0.00000000 0.25897247 -0.00000000 -0.32420498 -0.00000000 -0.00000000 -0.00000000 -0.00000000 0.00000000 -0.02513090 -0.22976603 0.00000000 -0.34571862 -0.27388027 0.00000000 0.00000000 -0.00000000 0.20817220 -0.00000000 -0.05499787 -0.00000000 -0.10188008 -0.00000000 0.00000000 -0.04381655 -0.00000000 -0.30372751 0.03598450 0.00000000 0.05135647 0.00000000 -0.16775933 -0.06887878 -0.00000000 0.10711636 0.06443787 -0.00000000 0.24137484 0.00000000 -0.00000000 -0.00000000 0.00000000 0.11852958 0.15511489 0.00000000 -0.05462329 -0.03580621 0.00000000 0.45764160 0.11657616 -0.29453114 0.00000000 -0.12625688 0.00541267 0.00000000 -0.00000000 0.22523737 0.30653855 0.00000000 -0.27341107 -0.08400182 -0.06800409 0.08505878 0.19876869 0.00000000 0.00000000 0.00000000 -0.31278309 -0.05307894 0.12342378 0.05440491 0.07660757
-0.10885019 -0.10013703 0.20341000 0.12569436 0.03372181 0.07352425 -0.08712802 0.07358818 0.19655275 -0.05255688 0.06068905 0.10106775 0.22235981 0.09135589 0.02477073 -0.05872048 0.02935908 0.09188850 0.03503557 -0.04273438 0.06104529 0.19692969 0.24917302 0.00419887 0.09031889 0.04416582 0.17369491 0.21656144 0.00204749 -0.01609410 0.14513107 0.01715927
0.00000000 0.18374127 0.00000000 -0.00000000 0.21159464 -0.11659709 0.00000000 0.56585842 0.28547788 -0.32401007 -0.12490097 -0.00000000 0.30391717 0.00000000 -0.32972190 -0.14747068 0.00000000 0.00000000 -0.00000000 -0.18475416 -0.13761595 0.00000000 0.00000000 -0.04092798 -0.00000000 -0.16178170 0.00000000 0.12422040 0.00000000 0.25404578 -0.44907805 0.16177318 -0.10984838 0.21872319 -0.18653706 -0.00000000 -0.00000000 0.00000000 -0.43112779 0.00000000 0.20303181 -0.31184119 0.00000000 -0.10655776 -0.17738971 0.00000000 -0.00000000 -0.36149120 -0.00000000 0.12473395 0.18071911 -0.17832190 -0.02518079 0.08731914 -0.25967771 -0.00000000 -0.00000000 -0.17644283 -0.19260977 0.00000000 -0.19944429 0.00000000 -0.56911957 0.00000000 -0.04856005 -0.00000000 -0.26587844 -0.00000000 0.14130156 -0.00000000 0.01152852 -0.00000000 -0.00000000 0.15552859 0.00000000 0.09015740 0.22953136 0.00000000 0.15856303 0.00000000 0.24647523 -0.22771373 0.16589437 0.00000000 -0.01499451 -0.14187910 0.00000000 0.16569747 0.00000000 -0.00000000 0.00000000 -0.00000000 0.16049014 0.00000000 0.00000000 -0.39919889 0.00000000 -0.00000000 0.00000000 0.02787762 0.19327365 -0.13432536 0.10562325 -0.00000000 -0.12270126 0.19782342 -0.00000000 -0.21080932 -0.00000000 0.00000000 -0.00000000 0.10123610 0.24770239 0.21890880 0.18962735 -0.14997266 -0.00000000 -0.14118339 -0.05651874 -0.27761802 -0.00000000 0.00000000 0.00000000 -0.20565422 0.00000000 -0.00000000 -0.01278394 0.00000000 -0.02593951 0.09682229 -0.24187379 -0.00000000 0.22533835 0.21387160 0.00000000 0.00000000 0.07238504 0.55794638 -0.00000000 0.00000000 0.00188412 -0.11477762 0.18286647 0.17743231 0.25502506 0.12646528 -0.00000000 -0.00000000 0.15051274 0.00000000 -0.11417901 -0.00000000 -0.11920377 0.00000000 0.23278779 0.17532274 -0.00000000 0.00000000 -0.65672356 0.00000000 0.00000000 0.04278321 0.00000000 -0.24426988 0.13021357 0.15775511 -0.10289497 0.01988699 0.07611383 0.00000000 -0.16355166 0.00000000 -0.14721200 -0.10825127 0.26788583 0.24808909 -0.00000000 0.13289180 0.00000000 0.00000000 0.11815570 -0.31983432 0.00000000 0.36059254 0.00000000 0.00000000 0.00000000 -0.13498046 -0.02344209 -0.20722251 -0.00000000 0.16228217 0.00000000 -0.00000000 -0.00000000 0.04883372 0.16473326 0.00000000 0.00000000 0.02651311 -0.00000000 0.00983233 0.13093224 0.12388880 -0.00000000 0.19991484 0.16122067 0.22034130 -0.00000000 0.00000000 -0.00000000 -0.19931135 -0.24171789 -0.31930140 0.08957931 -0.10796246 0.17566346 0.00000000 0.18859722 0.22872949 0.22230829 0.24979663 0.00000000 -0.00000000 -0.05253881 0.09126762 -0.20768471 -0.13428445 -0.00000000 0.05701553 0.31121215 -0.00000000 0.16896138 0.15112060 -0.00000000 -0.12517820 -0.00000000 0.00000000 0.00000000 0.00000000 -0.27941161 0.02044942 0.00000000 0.00000000 -0.00000000 0.00000000 0.00000000 -0.11088189 -0.17854680 0.09567036 0.00000000 0.10745606 -0.02707248 -0.00000000 -0.08984870 -0.26310211 -0.00000000 0.00000000 0.00000000 0.04345953 -0.00000000 0.00000000 -0.00000000 -0.29838502 0.23479190 0.00000000 -0.00000000 0.00000000 0.00000000 -0.07331736 0.28847185 -0.00000000 -0.00000000 0.29735401 -0.21293475 -0.08912832 -0.20477955 0.00000000 0.25581732 0.00000000 -0.00000000 -0.00000000 0.15652505 -0.00000000 0.15874422 -0.00000000 -0.00000000 -0.01048900 -0.00000000 0.00000000 -0.00000000 0.28242168 -0.01423133 -0.06951655 0.00000000 -0.00000000 -0.01301289 0.36115098 0.00000000 0.06759906 0.29173288 -0.14407519 0.00000000 0.25099343 -0.13130985 0.00000000 0.15020256 0.00000000 -0.13653067 0.00119482 -0.29515794 0.14409202 0.00000000 -0.00000000 0.03378858 0.13059731 -0.14664625 -0.10130567 -0.00000000 0.24032260 0.17764354 -0.12908094 -0.00000000 0.00000000 0.17984864 0.00000000 0.25231883 0.25615510 0.00000000 0.00022703 -0.21327151 -0.00000000 -0.11014124 0.00000000 0.02584200 -0.03768552 0.16059622 -0.16212492 0.00000000 0.32207990 0.00000000 0.00000000 -0.00000000 0.00000000 0.00000000 -0.21473944 0.07065833 0.00000000 0.00000000 0.00000000 0.37067813 0.15687737 -0.27128929 -0.20216471 -0.25880066 -0.00000000 0.08569369 0.00000000 -0.05976256 -0.30558231 -0.00000000 0.00000000 -0.22063994 0.00000000 0.18685628 -0.23532204 -0.00000000 -0.10278305 -0.07951201 -0.27966446 0.28864768 0.00000000 -0.00000000 0.18201120 0.00000000 -0.39400023 0.00000000 0.00000000 -0.00000000 -0.08486567 0.00000000 -0.29245976 -0.37721723 -0.45532390 0.30444688 0.00000000 0.00000000 -0.00000000 0.12701744 -0.00000000 -0.00000000 0.41231373 -0.00000000 -0.00000000 -0.00000000 0.25795460 0.00000000 0.16095136 0.31281009 -0.00000000 0.00000000 -0.18298317 -0.00000000 0.06084802 0.00000000 0.00000000 0.06684020 -0.00000000 0.00000000 -0.14530225 0.00000000 0.00000000 0.00000000 0.09319911 -0.00000000 0.61370546 -0.00000000 0.15731160 0.00000000 -0.24505457 -0.00000000 0.26035497 -0.00000000 0.06439478 0.00000000 0.08233498 0.17821370 -0.00000000 -0.00000000 0.00000000 0.00000000 -0.00000000 0.23517472 0.21642411 -0.24441171 0.20839536 0.00000000 0.00000000 -0.00000000 -0.11653530 -0.00000000 0.16085610 0.16752610 0.01196622 0.00000000 -0.06429219 -0.04757190 0.42001066 0.00000000 -0.00000000 -0.00000000 0.00000000 -0.00000000 -0.01248211 -0.46429837 0.00000000 -0.00000000 -0.25327745 -0.14660498 -0.00000000 0.19663750 -0.00000000 -0.00000000 -0.19956428 0.23393571 -0.20603697 -0.00000000 0.27390590 0.00000000 -0.30160895 -0.19013953 -0.20993461 0.00000000 0.24260561 0.00000000 0.08884930 0.32213658 -0.07494680 -0.81223345 -0.16346507 0.03215562 -0.00000000 -0.00000000 -0.11684771 -0.00000000 0.24212353 -0.00000000 -0.00000000 0.21810205 0.12341872 0.19963039 -0.25880021 0.00000000 0.17396003 -0.00000000 -0.00000000 -0.00000000 -0.04534170 -0.00000000 0.15361758 0.00000000 0.01437198 0.00000000 -0.16656280 0.00000000 -0.19073980 -0.16113369 0.26801619 0.29454970 -0.00000000 0.00000000 0.00000000 -0.08979572 -0.00000000 -0.00000000 0.22059087 0.00000000 -0.00000000 0.00000000 0.07047595 0.00000000 0.00000000 -0.03061903 -0.00000000 0.00000000 0.00000000 0.03375513 0.00000000 0.00000000 -0.00000000 -0.11292642 0.00000000 0.00000000 -0.06097746 0.27554435 -0.00000000 0.25603324 0.00000000 0.16198137 0.00000000 0.20791429 0.00000000 -0.00000000 0.09227169 0.00000000 -0.00000000 -0.00000000 -0.20045392 -0.00000000 -0.38654780 0.00000000 0.00000000 0.06803414 0.00000000 0.00000000 -0.00000000 0.03573064 -0.36507553 -0.00000000 -0.00000000 0.00000000 -0.35649791 -0.29772303 -0.33415374 -0.18003847 0.00000000 -0.34170294 -0.00000000 -0.09002269 0.00000000 -0.05550242 -0.00000000 0.00000000 0.00000000 -0.00000000 0.05265869 0.00000000 0.17510886 0.13867603 -0.00000000 -0.00000000 -0.00000000 -0.02030858 -0.00000000 0.20173389 -0.00000000 -0.00000000 -0.00000000 -0.13660954 0.18359002 -0.06595261 0.00000000 -0.06116035 0.19995883 0.00000000 -0.07814939 -0.22109686 0.00000000 -0.28171435 0.00000000 0.22132812 -0.00000000 0.07870471 0.00000000 -0.04600409 0.26364964 0.07824928 0.00000000 -0.23754631 -0.00000000 -0.02906168 -0.00000000 -0.00000000 -0.00000000 -0.15960993 -0.13756783 -0.00000000 -0.28015786 0.16019590 -0.10173551 -0.00000000 -0.09837190 0.00000000 0.17370455 -0.15537611 0.00000000 -0.24895763 -0.32566014 0.15949789 0.23431198 -0.00000000 -0.00000000 -0.17160785 -0.17860378 -0.08508218 0.00000000 0.20295350 -0.00000000 -0.00000000 0.00649754 -0.33934861 -0.00000000 -0.00000000 -0.11901693 -0.16001409 -0.00000000 0.00000000 0.18218094 0.00000000 -0.36601052 -0.00000000 0.11886735 -0.00000000 -0.21819903 -0.53825289 0.00000000 0.00000000 0.08940075 -0.04439251 0.30132639 -0.10844862 -0.00000000 -0.00000000 -0.00000000 -0.19677065 -0.21179594 -0.00000000 -0.17191197 -0.00000000 -0.00000000 -0.21808061 -0.01781819 0.16519335 0.00000000 -0.00000000 0.24875341 -0.07179853 -0.03629701 0.32307202 0.35528192 0.00000000 0.17507358 0.00000000 -0.00000000 -0.00000000 0.10181903 -0.00000000 0.42587304 -0.08538910 0.06272970 -0.00000000 0.11800446 0.09901582 -0.04856726 0.00000000 0.00000000 0.15780786 -0.00000000 -0.19543341 0.13633160 -0.00000000 0.20502958 0.00000000 0.37087116 0.36098453 -0.03180772 -0.12440893 0.00000000 0.22869197 -0.00000000 -0.00000000 0.53965229 -0.06038185 0.32426694 -0.14401101 -0.00000000 0.00000000 0.12369812 -0.20345786 0.00000000 -0.00000000 0.00000000 -0.13222761 -0.00000000 -0.00000000 0.20085081 -0.29478946 -0.13643096 0.24031730 -0.27320483 -0.00000000 -0.00000000 -0.00000000 0.00000000 0.00000000 0.00000000 -0.00000000 -0.00000000 0.00000000 0.21766250 -0.00000000 -0.00000000 0.00000000 0.15812075 0.31578454 0.07698372 0.00000000 0.00000000 0.21067236 -0.00000000 -0.00659426 -0.00000000 -0.19114013 -0.13530900 -0.21693099 0.00000000 0.00000000 0.07345855 0.00000000 0.00000000 0.18953212 0.06594272 0.00000000 -0.00000000 -0.00000000 -0.00000000 0.16950350 -0.00000000 0.60196590 0.26282790 0.00000000 -0.00000000 0.00000000 0.31127250 0.00000000 0.00000000 0.24486482 -0.00000000 -0.00000000 -0.00000000 0.00000000 0.00000000 0.00000000 -0.00000000 -0.00000000 0.30361113 -0.00000000 0.00000000 -0.00000000 -0.00000000 0.00000000 -0.00000000 0.25971645 0.10601975 0.00000000 0.14401726 0.00000000 0.24623972 -0.00000000 0.36761042 0.14940892 -0.00000000 -0.13425682 -0.00000000 0.10154577 0.00000000 -0.00000000 0.01033154 -0.28259742 -0.10068639 -0.12828736 0.00000000 0.00000000 -0.00000000 0.00000000 0.13377295 -0.00000000 -0.09677517 -0.24002928 -0.00000000 0.00000000 0.11496220 0.14726090 -0.00000000 -0.00000000 -0.00000000 -0.00000000 -0.02820493 0.00000000 0.15267868 -0.00000000 0.20876372 0.00000000 0.00000000 0.17751983 -0.33270261 0.15587814 0.00000000 -0.00000000 0.30236191 -0.13304771 0.00000000 0.00000000 0.13797307 0.00000000 0.22104390 0.09926490 0.00000000 -0.26064178 0.26895896 -0.00000000 -0.00505030 -0.26803178 -0.00000000 -0.00000000 0.00000000 0.00000000 0.07475537 0.11970713 0.00000000 0.00000000 -0.14647414 0.31168503 -0.03474038 0.00000000 -0.00000000 -0.00000000 -0.14909393 0.19095106 -0.14813380 0.19940789 -0.00000000 -0.00000000 0.00000000 0.16210142 -0.13329896 -0.00000000 -0.15586358 -0.31192264 0.00000000 0.19508114 0.19679193 -0.00000000 -0.04281555 0.00000000 0.00000000 -0.11053050 -0.06503217 0.18292415 0.00000000 0.00000000 0.00000000 0.04763540 0.02337718 -0.00000000 0.00000000 0.00000000 -0.00000000 -0.00000000 -0.00000000 0.00000000 0.00000000 0.23210181 0.00000000 0.00000000 -0.00000000 0.00000000 -0.06492422 0.04953153 0.00000000 -0.00000000 0.32940814 -0.00000000 -0.00000000 -0.00000000 -0.07324708 -0.00000000 -0.00000000 -0.00000000 0.27756742 0.00000000 -0.07940151 -0.00000000 0.09139367 0.00000000 0.05982198 0.00000000 0.49513215 0.00000000 -0.00000000 0.00000000 0.00000000 -0.27253878 0.00000000 -0.30720499 0.08281924 0.00000000 -0.17063139 -0.00000000 0.00000000 -0.21798840 0.00000000 -0.40414703 0.00000000 -0.26826906 0.17915642 -0.00000000 0.00000000 -0.00000000 0.05362180 -0.00000000 0.00000000 -0.00000000 0.00000000 0.24175283 -0.18454866 -0.02401284 0.11813574 0.00000000 -0.07994842 -0.00000000 0.00000000 -0.00000000 0.00175061 0.00000000 -0.00000000 -0.00000000 0.36848164 -0.12729228 0.58175611 0.09730250 -0.27491790 0.34063232 -0.00000000 0.35277379 -0.00000000 -0.00000000 0.02385889 -0.04907214 0.55915689 0.00000000 -0.00000000 -0.00000000 0.00000000 -0.00000000 0.00000000 0.00000000 0.17284016 0.19995371 -0.00000000 -0.00000000 -0.22838596 0.02052655 -0.19346429 0.00000000 -0.00000000 -0.05114411 0.00000000 0.00000000 -0.00000000 0.00000000 -0.00000000 -0.00000000 -0.00000000 -0.00000000 -0.00000000 -0.00000000 -0.00000000 0.00000000 0.00000000 0.00000000 0.00000000 0.00000000 0.00000000 0.00000000 0.27866307 -0.00000000 0.00000000 0.00000000 0.26731485 -0.00000000 0.00000000 0.19149134 -0.00000000 -0.06617727 0.22952053 -0.02958391 0.00000000 0.00000000 -0.00000000 -0.00000000 0.00000000 -0.00000000 -0.00000000 0.00000000 -0.00000000 0.00000000 0.00000000 -0.52190405 -0.40256250 -0.06893249 -0.07862911 -0.08440168 -0.00000000 0.26749060 -0.00000000 -0.00000000 -0.00000000 -0.09116761 0.00000000 -0.00000000 0.14066304 -0.00000000 0.00921025 0.29626104 -0.00000000 0.00000000 0.04478225 0.00000000 0.04771079 0.00000000 0.63597620 0.00000000 -0.00000000 0.30027866 0.00000000 -0.00000000 -0.00000000 -0.00000000 -0.00000000 0.37186539 0.00000000 0.19428512 -0.00000000 0.35524291 0.00000000 0.10114732 -0.00000000 -0.00000000 0.34442016 0.12776588 0.00000000 0.00000000 0.60566735 0.11672393 0.00000000 -0.00000000 0.92912638 -0.00000000 0.00000000 0.00000000 -0.04561740 0.00000000 -0.00000000 -0.17433383 0.00000000 0.40352967 0.12325677 0.44691452 -0.41032028 0.00000000 0.27772197 -0.77154279 -0.11804843 -0.17377652 -0.00000000 -0.00000000 0.44575047 -0.00000000 -0.00000000 0.00000000 -0.15511297 0.00000000 0.30277193 0.36648035 0.24435808 -0.00000000 -0.00000000 0.47494134 -0.00000000 -0.00000000 0.00000000 0.06108433 0.00000000 0.32966167 0.00000000 0.01213809 -0.20899770 0.00000000 0.00000000 0.32277733 -0.09555762 0.00000000 0.00000000 0.00000000 0.00000000 0.00000000 0.28473508 -0.00000000 -0.00000000 0.00000000 0.35085168 0.00000000 -0.20013903 -0.00000000 0.00000000 -0.00000000 -0.22001316 -0.00000000 0.00000000 0.71500850 -0.04280964 -0.00000000 -0.00000000 0.00000000 0.00000000 -0.10885680 -0.00000000 -0.22139765 -0.00000000 0.00000000 -0.00000000 -0.15278800 -0.01580209 -0.13726583 0.16913363 -0.00000000 0.07864153 0.20296775 -0.07039677 -0.00000000 0.45417631 0.00000000 0.16398226 0.00000000 -0.15654153 -0.10570244 0.00000000 -0.10928032 0.08783679 0.03855151 -0.09440523 0.00000000 -0.49988952 -0.00000000 0.19769868 -0.00000000 0.00000000 -0.18047628 0.00879313 -0.49247530 -0.00000000 0.50963336 -0.24228109 0.00000000 -0.23460455 0.00000000 0.00192708 -0.00000000 0.00000000 0.39332804 -0.00000000 0.00000000 -0.57927036 -0.06912492 -0.00000000 0.00000000 0.00000000 0.11523327 0.00000000 0.48666611 -0.39975163 -0.00000000 -0.00000000 -0.83707917 0.59485483 -0.25124303 -0.00000000 0.15009107 0.00000000 -0.13123204 0.11479776 -0.00000000 -0.23549202 -0.04827090 -0.00000000 0.15804300 0.26609653 0.00000000 0.19740362 -0.75816429 -0.00000000 0.00000000 -0.07911412 0.00000000 -0.00000000 -0.00000000 -0.18251528 0.14119701 0.13291380 -0.00000000 0.00000000 -0.00000000 0.13802366 -0.00000000 0.20839836 -0.12010844 0.00000000 0.00000000 -0.11153564 -0.00000000 -0.04891155 0.00000000 0.14387360 -0.00000000 -0.10352349 0.17379831 0.00000000 -0.12021763 0.00000000 -0.00000000 -0.00000000 -0.00000000 0.17633604 0.00000000 -0.13011394 -0.00000000 0.10294275 -0.18502663 0.11119448 0.00000000 0.06348646 -0.07192812 0.00000000 -0.00000000 0.10001197 0.16224551 -0.18614016 -0.00000000 -0.13074942 -0.04815990 0.32234895 0.21389742 0.24503641 0.10735744 0.10732848 0.48439139 0.28900421 0.45298272 -0.00000000 0.39393580 -0.06411181 -0.00000000 0.00000000 0.19862673 0.00000000 0.33100358 0.19727965 0.10968133 0.00000000 0.08592223 -0.00000000 0.21897802 0.35603482 0.46384555 0.00000000 0.33994302 -0.03584195 0.00000000 0.00000000 0.33325559 0.43171775 -0.00000000 0.14919615 0.17811939 0.05237966 0.25609583 0.00000000 0.00000000 -0.00000000 -0.00000000 0.00000000 0.00000000 0.00000000 0.27194324 0.00000000 0.00000000 0.27151176 0.00000000 -0.00000000 0.00000000 0.00000000 -0.00000000 0.11329769 -0.18838774 -0.00000000 -0.01933754 0.19911124 0.00000000 0.29820350 0.00000000 0.02972586 0.00000000 0.00000000 -0.25443152 0.00000000 0.27316833 0.00000000 -0.00000000 -0.08863383 -0.00000000 -0.63323081 0.00000000 -0.10629338 0.17133100 -0.23948711 -0.24022943 0.20323966 -0.00000000 -0.08106793 0.00000000 0.14701813 -0.00000000 0.42197242 0.28984809 -0.00000000 0.19701400 -0.00000000 0.13463557 -0.11532830 -0.12163048 0.00000000 1.13003564 0.00000000 -0.00000000 -0.00000000 0.22409303 0.00000000 0.15810378 0.00000000 0.00000000 0.19709222 -0.04440680 1.37844312 0.21948212 0.27637079 0.00000000 0.00000000 0.00000000 -0.00000000 0.66348118 0.13320670 -0.04416339 -0.06921477 0.00000000 -0.24057379 -0.21818443 -0.00000000 -0.00000000 0.11261767 0.21810146 0.00000000 0.00000000 0.23901157 0.00000000 0.06903844 0.00000000 -0.00000000 -0.00000000 0.00000000 0.05409680 -0.00000000 0.09885010 -0.00000000 -0.24039958 -0.00000000 0.00000000 -0.00000000 0.08188026 -0.00000000 0.07045410 0.12920660 0.00000000 0.00000000 -0.00000000 0.14362633 -0.13757735 -0.00000000 0.11395606 -0.00000000 0.00000000 -0.00234684 0.21189441 0.00000000 0.30084449 -0.00000000 -1.17655623 0.00000000 -0.58827966 0.65658665 0.00000000 0.00000000 -0.00000000 0.00000000 -0.04898506 0.20861083 0.14569844 0.10871981 -0.00000000 0.01154011 0.00000000 0.18885916 0.00000000 0.18447383 -0.00000000 0.07213304 0.00000000 -0.00000000 -0.09907148 0.02815212 -0.10726730 -0.00000000 0.00000000 -0.00000000 -0.09803934 0.00000000 0.00000000 0.00000000 0.09288619 0.00000000 -0.11507990 -0.00000000 -0.77350980 0.00000000 0.07829446 -0.00000000 -0.13095173 -0.00000000 0.00000000 -0.00000000 -0.09311751 -0.00000000 0.00000000 -0.65380645 0.00000000 0.09943549 1.24503827 0.00000000 0.66944450 0.07395308 0.00000000 0.00000000 0.63545066 -0.00000000 -0.00000000 -0.00000000 0.10135236 0.23981483 0.32113323 0.28378201 0.10183021 -0.00000000 -0.71373677 0.22640705 -0.00000000 -0.12253799 0.00000000 0.00000000 0.17243445 -0.00000000 0.00000000 -0.66662288 -0.13792615 -0.47515064 0.10363142 -0.13723344 0.29667938 -0.06055237 0.18077195 0.00000000 -0.00000000 0.00000000 0.00000000 -0.00000000 0.00000000 -0.00000000 0.19010189 0.00000000 0.00000000 -0.00000000 0.14158222 -0.14451393 0.00000000 0.00000000 0.00000000 0.34940135 -0.00000000 -0.01344588 0.00000000 0.00000000 0.22024952 -0.00000000 -0.21214502 0.00000000 -0.05221415 -0.00000000 0.00000000 -0.12489183 0.11418665 -0.00000000 -0.00000000 0.10531620 -0.09656581 0.00000000 0.00000000 -0.17365260 -0.17113370 -0.00000000 -0.08861075 -0.17041236 0.25186995 -0.00000000 -0.09538255 0.00000000 0.00000000 -0.00000000 -0.00000000 -0.00000000 -0.08520217 -0.01663089 -0.07243121 -0.25297058 0.18852517 -0.00000000 -0.06014893 -0.08915541 0.00000000 -0.00000000 -0.00000000 -0.37636784 -0.00000000 -0.00000000 -0.07729060 -0.23520318 -0.00000000 0.00000000 0.00000000 0.24846292 -0.14204711 -0.06079174 0.00000000 -0.00000000 0.00000000 -0.00000000 -0.10081587 0.14661971 0.06421672 0.00000000 -0.06328589 0.00000000 -0.00000000 -0.00000000 0.18334079 0.11561693 0.00000000 -0.00000000 -0.00000000 -0.00000000 0.25080797 -0.00000000 -0.09036180 0.15590197 -0.00000000 0.17829221 0.04072918 0.27862567 -0.00000000 0.00000000 0.00000000 0.00000000 0.00000000 0.00000000 0.06237753 0.00000000 -0.00000000 -0.00000000 -0.18525954 0.08849443 0.51789838 0.18132778 -0.01767116 0.26725471 0.23982476 0.10533887 0.00000000 0.00000000 -0.08969935 -0.15897317 0.19835651 0.23891386 -0.00000000 0.18627560 -0.00000000 0.19969191 0.21079420 0.00000000 -0.07421561 0.00000000 0.16706486 -0.00000000 -0.01977439 0.25038195 -0.11934375 0.00000000 0.00000000 0.00000000 0.00000000 0.10121753 -0.11557077 -0.01208570 0.29937041 -0.09865841 0.42313197 -0.00000000 -0.00000000 0.09457815 0.00000000 -0.00000000 0.00000000 -0.24072735 0.35216895 0.00000000 0.00000000 -0.00000000 0.09999335 -0.19065726 0.17995720 0.00000000 -0.00000000 0.00000000 -0.10832705 -0.16681248 -0.00000000 0.00000000 -0.00000000 -0.14672817 -0.10674176 -0.00000000 -0.00000000 0.18287852 0.14136434 -0.00000000 0.25757468 -0.24466684 -0.00000000 0.00000000 0.08979373 -0.05128982 0.11895647 -0.02831437 0.20449698 -0.07098792 0.06648742 -0.03442461 -0.00000000 0.04837612 -0.00000000 0.03866602 -0.00499181 0.00000000 0.00000000 -0.03491656 -0.14688981 -0.12262336 -0.00000000 0.02067273 0.00000000 -0.00000000 0.00000000 -0.00000000 0.00000000 -0.00000000 -0.00000000 -0.17468923 -0.13190264 -0.00000000 -0.05970150 -0.00000000 0.01360609 0.00000000 0.00000000 0.06502381 -0.14230374 -0.00000000 -0.33324277 -0.00000000 -0.00000000 -0.00000000 0.25216189 0.19719455 -0.30244201 -0.00000000 -0.00000000 0.19115834 -0.00000000 -0.00000000 0.00000000 -0.00000000 -0.17654006 0.00000000 -0.00000000 -0.10055715 -0.00000000 0.00000000 0.11259004 0.00000000 0.00000000 0.00000000 0.00000000 -0.18100485 -0.05975996 0.11318075 -0.00000000 0.01227120 0.28343615 0.00000000 0.00000000 0.28787845 -0.06440943 0.02722065 0.00000000 0.11934537 -0.04477305 0.05182933 -0.11151122 0.00000000 -0.05322169 -0.07807041 0.29495791 -0.00000000 -0.28523642 0.11666575 -0.00000000 0.00000000 0.25587270 0.07780946 -0.00000000 0.69145066 0.00000000 0.00000000 0.64758807 0.35845938 -0.00000000 -0.00000000 0.00000000 -0.13943711 -0.00000000 0.20937148 0.08280096 -0.00000000 -0.02228958 -0.00000000 -0.14251426 0.00000000 -0.00000000 -0.04478667 -0.01259999 0.06426027 -0.00000000 0.00000000 0.24279958 -0.00000000 -0.00000000 -0.20586476 -0.19044198 -0.00000000 -0.11342485 0.00000000 -0.00000000 0.00000000 0.28581282 0.12859513 -0.07145353 -0.00000000 -0.21553452 0.00000000 0.00000000 0.04413901 -0.00000000 -0.00000000 -0.00000000 -0.05193987 0.10931117 -0.14592075 -0.00000000 0.17285600 0.00000000 -0.00000000 0.06763100 -0.19586349 -0.18726735 0.10695148 0.00000000 -0.02711914 0.14611366 -0.16010027 -0.00000000 0.00000000 0.00000000 -0.09805202 -0.08733481 0.28149182 0.22345059 -0.18383536 0.00000000 -0.00000000 0.53515106 0.06753190 0.01548823 0.00000000 -0.06435317 0.10695902 -0.17999212 1.26981497 -0.17712814 0.00000000 -0.00000000 0.00000000 0.24994788 0.38830987 -0.87232286 0.23248135 0.00000000 0.00000000 0.45182338 -0.00000000 0.00000000 0.00000000 -0.18253063 -0.09518840 -0.00000000 0.09554720 0.03887801 0.94657689 0.00000000 -0.30116990 1.42764771 -0.08437926 0.64006913 0.15744926 0.00000000 -0.00000000 0.00000000 -0.00000000 0.00000000 0.25727656 0.17540948 0.00000000 -0.04570701 0.13232318 -0.14194971 -0.00000000 0.64642930 0.23676647 0.17541376 -0.11641318 0.16386183 0.10554033 -0.19071229 -0.00000000 -0.00000000 -0.11013348 -0.00000000 -0.14936347 0.00000000 -0.20509858 -0.00000000 -0.11938981 0.25666475 0.00000000 -0.00000000 0.00000000 -0.00000000 -0.14524096 0.00000000 -0.00908179 0.00000000 -0.00000000 -0.00000000 0.25454783 0.06455021 -0.11225829 -0.06573808 0.00000000 0.24663070 0.00000000 -0.00000000 0.20467514 0.16434164 0.00000000 -0.29013056 -0.26657596 -0.26495343 -0.08620698 0.15042691 0.35528922 -0.11326334 0.00000000 0.26515433 0.15344079 -0.13672014 0.00000000 0.74518126 -0.00000000 -0.10290387 0.13207485 -0.00000000 0.00000000 -0.25506163 -0.14726156 0.24604677 -0.10344546 0.00000000 0.00000000 0.00000000 0.31308281 0.96529877 0.40813449 -0.00000000 -0.00000000 -0.00000000 -0.00000000 -0.12269540 0.23734565 0.12251195 0.00000000 -0.00000000 -0.00000000 0.19510312 0.14591362 -0.00000000 -0.00000000 0.76764584 0.80885428 0.68694055 0.00000000 -0.31219643 -0.00000000 0.00000000 0.00000000 -0.00000000 0.00000000 0.08300224 -0.00000000 0.00000000 -0.00000000 0.16716771 0.35571885 -0.16014564 -0.00000000 0.09640115 0.07992378 -0.00000000 -0.00000000 0.00000000 -0.00000000 -0.08758300 -0.04255846 0.00000000 0.44978812 0.00000000 0.00000000 0.53235769 0.23299253 0.00000000 -0.00000000 -0.00000000 0.02472632 0.00000000 0.38785359 -0.00000000 0.47016266 0.00000000 0.20094427 0.00000000 0.42819679 0.11817012 0.44945803 0.00000000 0.00000000 0.09395090 -0.00000000 0.00000000 0.38811561 0.00000000 0.31903303 0.00000000 0.00000000 0.00000000 0.24570167 0.42899680 0.00000000 -0.00000000 0.00000000 0.03292566 0.00000000 0.00000000 -0.00000000
0.13234161 -0.14899051 -0.07829120 0.02986319 0.08790387 0.07770854 -0.00430350 -0.16086464 0.23205340 0.19996002 0.00366794 -0.06771564 -0.05870154 -0.10770850 -0.02155222 0.01991307 0.15708894 -0.20874926 0.17214723 0.05330891 -0.13002484 0.27786300 -0.16078191 0.13279469 -0.04165108 -0.16440028 -0.16229694 -0.08319063 0.00029488 0.01223905 0.06814162 -0.05107677 0.11843254 0.29598132 0.28650832 0.21026967 0.09230361 0.30266193 -0.09947584 0.28521499 0.43178570 0.01600179 -0.02958883 0.10966034 -0.19274274 0.24092416 -0.30310622 0.12700424 -0.06209219 0.10580807 0.16684845 0.21093595 0.01973087 0.01045542 0.12941729 0.28979018 0.10265760 0.09310879 0.27993026 0.13527149 0.13828531 0.31898531 0.03293685 0.20490710
